element,0,1,2,3,4,5,6,7,8,9,10,11,12,13,14,15,16,17,18,19,20,21,22,23,24,25,26,27,28,29,30,31,32,33,34,35,36,37,38,39,40,41,42,43,44,45,46,47,48,49,50,51,52,53,54,55,56,57,58,59,60,61,62,63,64,65,66,67,68,69,70,71,72,73,74,75,76,77,78,79,80,81,82,83,84,85,86,87,88,89,90,91,92,93,94,95,96,97,98,99,100,101,102,103,104,105,106,107,108,109,110,111,112,113,114,115,116,117,118,119,120,121,122,123,124,125,126,127,128,129,130,131,132,133,134,135,136,137,138,139,140,141,142,143,144,145,146,147,148,149,150,151,152,153,154,155,156,157,158,159,160,161,162,163,164,165,166,167,168,169,170,171,172,173,174,175,176,177,178,179,180,181,182,183,184,185,186,187,188,189,190,191,192,193,194,195,196,197,198,199,200,201,202,203,204,205,206,207,208,209,210,211,212,213,214,215,216,217,218,219,220,221,222,223,224,225,226,227,228,229,230,231,232,233,234,235,236,237,238,239,240,241,242,243,244,245,246,247,248,249,250,251,252,253,254,255,256,257,258,259,260,261,262,263,264,265,266,267,268,269,270,271,272,273,274,275,276,277,278,279,280,281,282,283,284,285,286,287,288,289,290,291,292,293,294,295,296,297,298,299,300,301,302,303,304,305,306,307,308,309,310,311,312,313,314,315,316,317,318,319,320,321,322,323,324,325,326,327,328,329,330,331,332,333,334,335,336,337,338,339,340,341,342,343,344,345,346,347,348,349,350,351,352,353,354,355,356,357,358,359,360,361,362,363,364,365,366,367,368,369,370,371,372,373,374,375,376,377,378,379,380,381,382,383,384,385,386,387,388,389,390,391,392,393,394,395,396,397,398,399,400,401,402,403,404,405,406,407,408,409,410,411,412,413,414,415,416,417,418,419,420,421,422,423,424,425,426,427,428,429,430,431,432,433,434,435,436,437,438,439,440,441,442,443,444,445,446,447,448,449,450,451,452,453,454,455,456,457,458,459,460,461,462,463,464,465,466,467,468,469,470,471,472,473,474,475,476,477,478,479,480,481,482,483,484,485,486,487,488,489,490,491,492,493,494,495,496,497,498,499,500,501,502,503,504,505,506,507,508,509,510,511
H,0.10739542543888092,0.03780372813344002,-0.05647451430559158,-0.02121523767709732,-0.05496159940958023,0.05500899627804756,0.14857196807861328,0.07244884222745895,-0.07837695628404617,-0.021145980805158615,0.014978362247347832,-0.10618868470191956,-0.06570998579263687,0.06048758327960968,0.021319428458809853,0.0024015535600483418,-0.07950060814619064,-0.048223502933979034,0.022853363305330276,0.08469318598508835,0.03474143519997597,-0.027834521606564522,0.11983200162649155,-0.03089519776403904,-0.05616458132863045,0.005602401215583086,0.1743161976337433,0.03452400490641594,-0.06720578670501709,0.0669269859790802,-0.09786581993103027,0.029161203652620316,-0.06482571363449097,-0.04342421516776085,-0.08551845699548721,-0.03107406385242939,0.06472896039485931,0.08965941518545151,-0.1849595457315445,-0.09142317622900009,0.06311242282390594,0.04903179407119751,0.014014985412359238,-0.006290383171290159,-0.10356748104095459,0.08072556555271149,0.12901122868061066,-0.04400709271430969,-0.18011713027954102,-0.24740733206272125,0.05528774484992027,0.12398524582386017,-0.1501062661409378,0.19966574013233185,0.08323127776384354,-0.26073598861694336,0.17677749693393707,-0.2620697617530823,0.031063728034496307,-0.005220348946750164,0.010155266150832176,0.07979003340005875,0.01181908417493105,0.025662658736109734,-0.06557843089103699,-0.029675068333745003,0.13487182557582855,0.1798802614212036,0.1997961699962616,0.03340410813689232,-0.14964720606803894,0.010611550882458687,-0.1179698184132576,0.03881363570690155,-0.11861162632703781,0.16874763369560242,0.07005304098129272,-0.021049434319138527,0.07450774312019348,0.009722300805151463,0.00496645737439394,0.016075458377599716,-0.14764747023582458,-0.06611209362745285,0.014449839480221272,-0.16205476224422455,-0.14186137914657593,0.04040071740746498,-0.12464432418346405,-0.1685536950826645,0.04857904464006424,-0.15265877544879913,0.06826432049274445,-0.10354361683130264,-0.001899571856483817,0.010189621709287167,-0.07582414150238037,0.012064690701663494,0.019360153004527092,-0.11874282360076904,0.023664327338337898,0.017370140179991722,0.10389483720064163,0.048745714128017426,-0.24886955320835114,-0.013096568174660206,0.06599098443984985,-0.05372897908091545,0.0328904427587986,0.10974543541669846,0.008060937747359276,0.12221278250217438,-0.04584171995520592,-0.34666308760643005,-0.10779056698083878,-0.05741605535149574,-0.00030175820575095713,-0.033568572252988815,-0.12401133030653,0.0132659412920475,0.040865227580070496,-0.14678677916526794,0.13620221614837646,-0.005763498600572348,0.08435691893100739,-0.140220507979393,0.043643541634082794,0.056029852479696274,-0.11452856659889221,0.14890845119953156,-0.010789809748530388,0.0028548650443553925,0.008463977836072445,-0.09935031086206436,0.1719847023487091,0.06490098685026169,0.0705135241150856,0.040501635521650314,0.03610203042626381,-0.03618888556957245,0.05168450251221657,0.0689932182431221,0.09837152808904648,0.18087835609912872,0.0904836431145668,0.0014886698918417096,-0.020355772227048874,0.018525823950767517,-0.18321898579597473,-0.10548879951238632,0.04876520857214928,0.12435400485992432,-0.14497607946395874,-0.19450868666172028,-0.18849650025367737,-0.13975730538368225,-0.00996468123048544,-0.08805906027555466,0.17390863597393036,0.07938283681869507,0.04923677444458008,-0.05005887523293495,-0.038403887301683426,0.10635950416326523,-0.13124893605709076,-0.07229162752628326,-0.14202801883220673,0.31771406531333923,0.04092411696910858,0.1109643429517746,0.04996635019779205,0.14183636009693146,0.06355661898851395,-0.04536658152937889,-0.04572691395878792,0.07884030044078827,-0.007209859322756529,-0.16248339414596558,-0.10043970495462418,-0.15600380301475525,-0.03386049345135689,-0.11341065168380737,0.029934104532003403,0.06832660734653473,-0.14907725155353546,0.02327350713312626,0.0998796746134758,-0.17674270272254944,0.10749328136444092,0.08749040216207504,-0.18905994296073914,-0.28901100158691406,-0.01929568685591221,0.010300117544829845,-0.1357891857624054,0.09043336659669876,-0.1236521378159523,0.03438626974821091,0.2205943614244461,-0.04929155856370926,0.17771978676319122,-0.1889195293188095,0.06343402713537216,-0.008408661000430584,-0.07635509967803955,0.16895197331905365,0.13744565844535828,-0.013884599320590496,0.1163400188088417,-0.08469603955745697,-0.05672368407249451,0.129893958568573,-0.029293445870280266,0.20661459863185883,0.151642307639122,-0.03631053864955902,-0.0601455494761467,-0.0005930674960836768,0.16782879829406738,0.20186184346675873,0.10988736152648926,-0.18247389793395996,-0.1732783317565918,0.02028471603989601,-0.03315775468945503,0.09553360939025879,-0.01272160280495882,-0.051321666687726974,-0.03674698621034622,0.09132492542266846,0.04752311483025551,0.1103791743516922,-0.19207392632961273,-0.013168495148420334,0.24649249017238617,0.0649973675608635,0.10877888649702072,-0.04483208432793617,-0.056487370282411575,-0.009269588626921177,0.04834955930709839,0.011991951614618301,0.1887175738811493,0.10184715688228607,0.03690856695175171,0.09200742840766907,0.04696090146899223,0.12074601650238037,-0.1654297113418579,-0.09736936539411545,0.011952755972743034,0.12728972733020782,-0.01787423901259899,0.17576554417610168,0.01628519780933857,0.1061021238565445,-0.0816783756017685,0.0878259688615799,0.1802932471036911,-0.11008650064468384,0.09755362570285797,0.07137882709503174,-0.06157234311103821,-0.04700664058327675,-0.007018200121819973,0.05290965363383293,0.06096715107560158,-0.07063102722167969,0.18169574439525604,0.08522555977106094,0.03965757414698601,0.025528421625494957,-0.11326190829277039,-0.07882454246282578,0.014279976487159729,0.015445243567228317,-0.15578597784042358,0.07598245143890381,-0.04327229782938957,0.1334472894668579,-0.1187577024102211,0.08755597472190857,0.10074353218078613,0.0005489987088367343,-0.09108951687812805,-0.18699897825717926,-0.09601576626300812,0.018476659432053566,-0.08115468174219131,-0.00381753733381629,-0.012198332697153091,-0.12874892354011536,0.11370034515857697,0.12186553329229355,0.05016622692346573,0.0849301740527153,0.04272495210170746,-0.17933548986911774,-0.24746458232402802,-0.027566229924559593,-0.08692138642072678,-0.05799153074622154,0.22413097321987152,-0.18955862522125244,0.1757437288761139,0.023934995755553246,-0.017862418666481972,-0.06472408771514893,0.016878722235560417,0.1238480880856514,-0.11079500615596771,-0.049489378929138184,0.006172300316393375,-0.16401062905788422,0.1353939324617386,-0.0033486555330455303,-0.17261181771755219,-0.025553351268172264,0.026021642610430717,0.009358287788927555,-0.0961134284734726,-0.18244357407093048,-0.12272930890321732,-0.22753386199474335,-0.028104573488235474,-0.21744532883167267,-0.008648634888231754,0.0007580704404972494,0.05340126156806946,-0.03873300552368164,-0.20879477262496948,-0.009664646349847317,0.05425018444657326,-0.12316198647022247,0.2477484941482544,-0.14603440463542938,0.129239022731781,0.1035485789179802,-0.16044437885284424,0.005863248370587826,0.08827831596136093,0.16032443940639496,0.00655109528452158,0.08158788830041885,-0.19901341199874878,-0.10136028379201889,-0.22269177436828613,-0.1815345585346222,-0.0020622138399630785,0.02059970051050186,0.15909209847450256,-0.04728838428854942,0.10252321511507034,-0.07550904899835587,-0.058465391397476196,0.0618448443710804,0.03133111819624901,-0.0571923553943634,-0.0685252845287323,0.030660590156912804,0.04347715154290199,0.08647924661636353,-0.32889118790626526,-0.0200954582542181,0.08797108381986618,-0.1740620881319046,0.0880134329199791,0.2745969593524933,-0.05096074566245079,-0.06565544009208679,0.04903515800833702,0.03845112398266792,-0.08973938971757889,0.07829581946134567,-0.16161270439624786,-0.22334392368793488,0.05814025551080704,-0.13628244400024414,0.028085270896553993,0.1728220283985138,0.010786495171487331,0.12404178828001022,0.037143319845199585,-0.014827696606516838,0.14711809158325195,0.08299744874238968,-0.16166533529758453,0.018688173964619637,0.11049036681652069,-0.21749155223369598,-0.36652201414108276,-0.19326400756835938,-0.03471698984503746,0.01109441090375185,-0.14994218945503235,-0.018077967688441277,0.16064022481441498,-0.04250064864754677,0.15662910044193268,0.10409489274024963,0.12706460058689117,-0.07883679121732712,0.10890554636716843,-0.2254951298236847,0.1717783361673355,0.01763312518596649,0.1432500034570694,0.16118934750556946,0.030849430710077286,-0.1076488345861435,-0.12197954207658768,0.04361636936664581,0.06223912909626961,-0.07366273552179337,0.09124137461185455,0.0709434375166893,0.07317539304494858,0.1195954829454422,0.21603775024414062,-0.11312885582447052,0.04864291846752167,-0.15360264480113983,-0.14779160916805267,-0.16392426192760468,0.09679309278726578,0.09320637583732605,-0.04216402396559715,0.08609053492546082,-0.09167186915874481,-0.013682067394256592,0.14089441299438477,-0.11087793856859207,-0.2680334746837616,-0.10612975805997849,-0.23276230692863464,0.05357867851853371,0.06087002158164978,-0.2118445783853531,-0.08791013807058334,0.142955482006073,-0.0034046026412397623,-0.14022226631641388,-0.19190983474254608,0.05089503154158592,-0.12650175392627716,0.13627362251281738,-0.09284865111112595,0.030694682151079178,0.049714840948581696,0.04188075289130211,0.17022626101970673,-0.013923763297498226,-0.08347177505493164,0.29674291610717773,0.005778410006314516,0.020503073930740356,0.01073243748396635,0.16447392106056213,-0.04502231255173683,-0.03783745691180229,0.1027449294924736,0.1846267133951187,0.014673092402517796,0.01260754931718111,-0.0735127404332161,-0.13863538205623627,0.06748423725366592,-0.061400800943374634,0.11101340502500534,0.09359677135944366,-0.18260326981544495,0.058156054466962814,0.10359552502632141,0.08157602697610855,-0.0316174253821373,-0.07335597276687622,-0.061421819031238556,0.05811960622668266,-0.1679840385913849,0.025760941207408905,-0.08752696961164474,-0.24770978093147278,0.12981225550174713,-0.0003705311974044889,0.008097758516669273,0.12204206734895706,0.01095382310450077,0.18472324311733246,-0.04140368849039078,0.024780811741948128,0.16040284931659698,0.006398592609912157,-0.21536730229854584,0.1417231261730194,0.18718208372592926,-0.06762304902076721,-0.10054003447294235,0.2177077680826187,-0.12916414439678192,-0.13513006269931793,-0.15358735620975494,-0.046270254999399185,0.020822664722800255,0.047035280615091324,0.04602007567882538,-0.08257342875003815,0.03344102203845978,-0.14582040905952454,-0.05145068094134331,-0.15897385776042938,0.025337766855955124,-0.02055847831070423
He,-0.3123641610145569,-0.09754756093025208,0.001808726112358272,-0.06563452631235123,-0.19166968762874603,-0.02646731212735176,0.04595131427049637,0.10509444028139114,0.049699828028678894,-0.0964232087135315,-0.16375014185905457,-0.01877680979669094,0.08376844227313995,-0.14193753898143768,0.127552792429924,-0.11310172826051712,-0.1113409548997879,-0.07302509248256683,-0.06304731220006943,0.022200148552656174,0.16733615100383759,0.13573455810546875,0.19533808529376984,0.14097009599208832,-0.07153789699077606,0.0656997337937355,0.04701744765043259,0.16868722438812256,0.39670202136039734,0.08227592706680298,-0.0017945626750588417,-0.19418124854564667,-0.23918354511260986,0.20443959534168243,-0.012173594906926155,0.18982607126235962,0.016317544505000114,0.3053942918777466,0.0060805329121649265,0.02783958986401558,0.032498475164175034,0.010975665412843227,0.0011014104820787907,-0.05028200149536133,0.06415335834026337,-0.027143185958266258,0.07020619511604309,-0.2555495798587799,0.029306236654520035,-0.21358747780323029,-0.007740440312772989,-0.02445194311439991,-0.24774348735809326,0.09980515390634537,0.2576470673084259,-0.17506758868694305,0.10074454545974731,-0.018709886819124222,-0.13401342928409576,-0.18843603134155273,-0.13456189632415771,0.08336237072944641,0.1517539769411087,0.08058258146047592,-0.1460355520248413,0.022302471101284027,-0.03746478259563446,-0.06295949965715408,0.11163332313299179,-0.20821313560009003,0.046284306794404984,0.016330448910593987,0.04080915078520775,0.13633500039577484,0.02293361909687519,0.199134960770607,-0.14344097673892975,-0.04774495214223862,0.1594296395778656,0.0831369012594223,-0.26882168650627136,-0.2466006726026535,-0.035180237144231796,0.024976488202810287,-0.0008789474377408624,-0.07124928385019302,-0.0828075036406517,-0.007401260547339916,-0.026719605550169945,-0.03476639464497566,0.05711206793785095,-0.05050235241651535,0.18404662609100342,0.001558177056722343,-0.09166787564754486,0.18470509350299835,0.0448475144803524,0.08630618453025818,0.2549765408039093,-0.0012140918988734484,-0.007032277528196573,-0.2778140604496002,0.2788085341453552,0.053147125989198685,0.06388066709041595,-0.03508908674120903,0.01615411415696144,-0.12015987932682037,-0.03144947811961174,-0.14541594684123993,-0.08720521628856659,0.0982506051659584,-0.1652030348777771,-0.10242350399494171,-0.06211162731051445,0.15629635751247406,-0.025970039889216423,0.10688220709562302,-0.20767632126808167,0.0059552923776209354,-0.05596620962023735,-0.12591928243637085,0.06802263855934143,-0.021332504227757454,0.014419631101191044,-0.05267241597175598,-0.10805398970842361,-0.0352223664522171,-0.10799715667963028,0.039902787655591965,0.021330473944544792,-0.10468342900276184,0.08269745111465454,-0.22332091629505157,0.22224631905555725,0.1239311471581459,-0.06620952486991882,0.1826324313879013,-0.14974074065685272,0.0813894271850586,-0.061514679342508316,0.07157771289348602,-0.08488442003726959,-0.01384864840656519,-0.03511269390583038,-0.058168135583400726,-0.038855113089084625,-0.06490043550729752,-0.007152731530368328,0.03345470130443573,0.09778343886137009,-0.08738956600427628,-0.11124573647975922,-0.4101438820362091,0.0035593947395682335,-0.06377198547124863,-0.12358643114566803,-0.10214177519083023,-0.1193239763379097,0.2523760199546814,-0.13626284897327423,0.0970737636089325,0.15922534465789795,0.11377238482236862,0.01843094639480114,0.05224795639514923,0.09056156128644943,0.32238754630088806,0.03092951327562332,0.04570150002837181,-0.020816201344132423,0.25320354104042053,-0.14200161397457123,-0.05796738341450691,0.10619668662548065,-0.2738979756832123,0.10094919055700302,-0.10935358703136444,0.08539969474077225,-0.12637145817279816,-0.0834323912858963,-0.01764843799173832,0.033649992197752,-0.011782988905906677,0.07359068095684052,-0.04394518584012985,-0.14369508624076843,-0.013614808209240437,0.148641899228096,0.21583934128284454,0.02485158108174801,-0.19535839557647705,-0.11097255349159241,0.02408790960907936,0.10009318590164185,0.0014049195451661944,-0.031018072739243507,0.2714274823665619,0.12190081179141998,-0.09763810783624649,-0.09880711138248444,-0.20435313880443573,-0.0022242150735110044,-0.0481940396130085,-0.02844327501952648,0.08207003027200699,0.062926284968853,0.06367576867341995,-0.03714575991034508,-0.06643656641244888,0.14833824336528778,0.01925162598490715,0.039648592472076416,0.18000084161758423,-0.10774557292461395,0.014552349224686623,0.27495914697647095,0.13851386308670044,0.00045261692139320076,0.08713767677545547,-0.027734113857150078,-0.08451743423938751,-0.10443262755870819,-0.05496880039572716,-0.18623511493206024,0.1314750611782074,0.0644478052854538,0.2569783926010132,0.040298447012901306,-0.031177278608083725,0.06465629488229752,-0.24434681236743927,-0.15641246736049652,-0.25582554936408997,0.07579223066568375,-0.13235913217067719,0.06252104043960571,0.2039422243833542,-0.031210463494062424,0.00019780968432314694,0.1278546005487442,-0.26377516984939575,-0.25764521956443787,0.02848261408507824,-0.15599296987056732,0.010567122139036655,-0.02284793183207512,0.24242405593395233,-0.13429753482341766,-0.1357671022415161,-0.021200263872742653,-0.02037927135825157,0.1922699213027954,0.07984431833028793,-0.20714104175567627,-0.0007895429152995348,-0.01825578883290291,-0.06982462108135223,0.058411113917827606,0.047669943422079086,0.14209966361522675,0.32773008942604065,0.005561153870075941,-0.13670466840267181,0.2167072743177414,-0.24150486290454865,-0.023816093802452087,0.0642632469534874,0.06161779165267944,0.30790427327156067,0.056316208094358444,-0.03332240507006645,-0.06256598234176636,0.023944798856973648,0.06225507706403732,-0.07602056115865707,-0.3227215111255646,0.1859385371208191,-0.05357928201556206,-0.0062886374071240425,-0.02868434600532055,0.21544046700000763,0.15649420022964478,0.07609541714191437,-0.006666866131126881,0.19359537959098816,-0.11215890944004059,-0.14438150823116302,0.010146159678697586,-0.0984027087688446,0.08159289509057999,0.04522625729441643,-0.0528089702129364,0.10709764808416367,0.2794865071773529,0.15491779148578644,-0.08871433138847351,0.008289925754070282,-0.030586671084165573,-0.0160836074501276,0.15689219534397125,-0.09539048373699188,0.004102035891264677,-0.08568952232599258,0.298728883266449,-0.10388071089982986,-0.19898228347301483,-0.10294822603464127,-0.041320811957120895,0.06056578457355499,0.07562870532274246,0.025981571525335312,0.15610063076019287,0.0861605629324913,-0.013017142191529274,-0.017475606873631477,0.04658110812306404,-0.039673078805208206,0.38080090284347534,-0.19752760231494904,0.040076132863759995,-0.034887321293354034,-0.09663145244121552,-0.1520981341600418,0.0285626370459795,-0.25765958428382874,-0.09851964563131332,0.1366737186908722,-0.06013351306319237,-0.06952417641878128,-0.0037334072403609753,-0.021206483244895935,-0.10651285201311111,0.06302911788225174,0.019425828009843826,-0.0005942221614532173,0.12903568148612976,0.17766845226287842,-0.004780144430696964,0.16324682533740997,0.10878195613622665,-0.25023019313812256,0.12863460183143616,-0.053442876785993576,-0.004654735792428255,-0.09322185069322586,-0.3500221073627472,0.008219778537750244,-0.036608193069696426,0.039364591240882874,0.021114060655236244,-0.20158477127552032,-0.02512814663350582,0.010665571317076683,0.003491509472951293,-0.03361276537179947,-0.05022941157221794,-0.03014783188700676,0.024011267349123955,0.07538716495037079,0.21274197101593018,0.08054356276988983,-0.1368202418088913,0.1154918298125267,0.07341291010379791,0.06753693521022797,-0.105286605656147,0.18305833637714386,-0.1098882406949997,-0.11009626090526581,0.03034999407827854,-0.005262515973299742,-0.012538887560367584,0.08896815031766891,0.026774756610393524,-0.02541547641158104,-0.07623006403446198,-0.06323961168527603,0.06754417717456818,0.030408011749386787,-0.0964340940117836,0.07057171314954758,-0.041078995913267136,0.1099785566329956,0.11651545763015747,0.1613871157169342,-0.0010119997896254063,-0.13123103976249695,-0.10840219259262085,-0.2338927984237671,-0.2293059527873993,0.10236327350139618,-0.00782497227191925,-0.2948871850967407,-0.168294757604599,-0.12601973116397858,0.004130709916353226,0.007319737691432238,0.14088936150074005,0.11242600530385971,0.29074719548225403,0.1251174509525299,-0.17411582171916962,-0.026239072903990746,-0.0001250832574442029,-0.059180691838264465,0.235234797000885,-0.029426218941807747,0.12126170843839645,-0.09618765860795975,0.049772851169109344,0.0026276474818587303,-0.14034554362297058,0.1459173858165741,-0.04767444357275963,-0.14121615886688232,-0.15247038006782532,0.01170275080949068,0.09213751554489136,-0.15584756433963776,0.10205703973770142,0.0323445163667202,-0.04401314631104469,0.060058798640966415,0.04976995661854744,0.09051468223333359,-0.3606458008289337,0.1290040761232376,0.0420771948993206,0.055831681936979294,0.08743492513895035,-0.09001295268535614,-0.21758180856704712,-0.3003144860267639,0.07927628606557846,0.04453318566083908,0.14721223711967468,-0.10409408807754517,0.022059278562664986,-0.02543034590780735,-0.03665953129529953,-0.21910835802555084,0.05954975262284279,0.06476517766714096,-0.24271970987319946,0.10360662639141083,-0.2261105179786682,0.312819242477417,0.17638781666755676,-0.07712463289499283,-0.04289456829428673,-0.044642187654972076,-0.039745479822158813,-0.017896365374326706,-0.015646016225218773,-0.06334098428487778,-0.14036506414413452,-0.05338003858923912,-0.02582792565226555,-0.05779486522078514,0.15135672688484192,-0.09217646718025208,-0.007202482316643,0.06690391153097153,-0.36131277680397034,-0.010312787257134914,-0.10944211483001709,0.23076555132865906,0.0614701583981514,-0.10172993689775467,0.11330141872167587,0.24206185340881348,-0.05453973636031151,-0.1938934326171875,-0.07920694351196289,0.03999219834804535,-0.12249676138162613,-0.12949419021606445,-0.048080720007419586,0.04113037511706352,0.032064806669950485,-0.11493157595396042,-0.1945033222436905,-0.1391785889863968,-0.005176398903131485,0.004839666187763214,-0.12960052490234375,-0.18607625365257263,-0.002776137553155422,-0.06312007457017899,0.04254792258143425,-0.05688501521945,-0.058749761432409286,-0.08510777354240417,0.23628248274326324,0.10031087696552277,-0.03278068080544472,0.024837033823132515,-0.13080748915672302,-0.009347038343548775,-0.06099764630198479,0.20483656227588654,0.15101535618305206,0.27861487865448,-0.020371390506625175,0.10585464537143707,-0.037217505276203156,0.1123303472995758,0.02347288280725479,-0.07322272658348083,0.09550438076257706,-0.12049628049135208
Li,-0.07878284901380539,0.2031940370798111,-0.3088664412498474,0.07807055115699768,0.09403888881206512,-0.06597119569778442,-0.10412425547838211,0.07417628914117813,0.056266989558935165,-0.10005424171686172,-0.07267873734235764,-0.06915567815303802,0.06708314269781113,-0.054013386368751526,-0.05884605273604393,-0.036960020661354065,-0.2311486005783081,-0.15982337296009064,-0.029084360226988792,0.0008892345358617604,0.06579674035310745,-0.053778354078531265,-0.000562134082429111,-0.01972520910203457,0.01849326677620411,0.00732694286853075,-0.09674188494682312,-0.14589554071426392,0.32948923110961914,0.04083805903792381,-0.10237028449773788,-0.004309256561100483,0.06789050251245499,0.10065402835607529,-0.2232247292995453,0.02676084078848362,0.15492336452007294,0.1389472484588623,-0.07584606111049652,0.22894072532653809,-0.05096599832177162,0.077303446829319,-0.08237431198358536,-0.007214214187115431,-0.04043332487344742,0.16677968204021454,-0.08202973008155823,0.035055626183748245,-0.08555708825588226,-0.11095976829528809,0.06517694890499115,0.04682111740112305,-0.13536089658737183,0.06700494885444641,-0.008578839711844921,-0.12090388685464859,0.12620021402835846,0.019462410360574722,-0.03042050451040268,0.11934148520231247,-0.10128352046012878,0.051167313009500504,0.15825094282627106,-0.26712796092033386,0.03970487788319588,-0.10147564858198166,0.03269394487142563,0.053926896303892136,-0.02290603332221508,-0.050783995538949966,-0.18106670677661896,-0.1911344826221466,0.02668117918074131,0.2791106402873993,-0.025290299206972122,0.14896200597286224,-0.043022360652685165,0.10266941785812378,0.09196718037128448,0.005021447315812111,-0.02927677519619465,-0.021098416298627853,-0.1386735439300537,0.009036803618073463,-0.21519365906715393,-0.23521648347377777,0.08033739775419235,-0.18180575966835022,0.09210088849067688,0.1981475055217743,-0.039151374250650406,-0.10850359499454498,-0.16758345067501068,0.025753630325198174,-0.15380214154720306,0.012256305664777756,0.04643361642956734,-0.06740456819534302,-0.001110705896280706,-0.04261348024010658,-0.042035188525915146,-0.24367479979991913,0.16802242398262024,0.15580318868160248,0.01853863336145878,-0.1863241195678711,0.1563904583454132,-0.02191833034157753,-0.15850310027599335,-0.16626907885074615,-0.0322628878057003,-0.04194797948002815,0.13803020119667053,-0.14095325767993927,-0.06626907736063004,-0.09110544621944427,-0.09667602926492691,-0.229098841547966,-0.0452754870057106,0.02005154639482498,0.01659892126917839,0.08171097189188004,-0.07235666364431381,-0.040247559547424316,-0.041998811066150665,0.11250895261764526,-0.1410720944404602,0.19994570314884186,0.10564108937978745,0.123406320810318,-0.040452927350997925,0.15121065080165863,0.08355200290679932,-0.055236123502254486,0.2135324329137802,0.009871131740510464,0.04610338434576988,0.16466353833675385,-0.12756533920764923,0.13255473971366882,-0.021042076870799065,0.07408515363931656,-0.0944816991686821,-0.09247851371765137,-0.11624317616224289,-0.05763521417975426,-0.014623483642935753,-0.014593450352549553,-0.10746707022190094,-0.07322192937135696,0.00493046548217535,0.10093671828508377,0.003415024606510997,0.133377343416214,-0.12678202986717224,0.03927792236208916,0.2849162220954895,-0.01231846958398819,-0.1612694412469864,0.0435086190700531,-0.10060616582632065,0.05325397849082947,0.1474991738796234,0.20267415046691895,-0.12303537130355835,0.14735236763954163,-0.0775839164853096,0.20322191715240479,0.03818481042981148,-0.13430805504322052,0.08180083334445953,-0.00915949884802103,-0.061146702617406845,-0.16529713571071625,0.12905201315879822,-0.14903922379016876,-0.1518995314836502,-0.014597040601074696,-0.04851909726858139,-0.1132945641875267,0.0059006307274103165,0.05478154495358467,0.050295740365982056,0.09369871765375137,0.01850527711212635,0.16615214943885803,0.12144644558429718,0.1300750970840454,0.09373174607753754,0.0722721666097641,-0.17587941884994507,-0.15356317162513733,-0.15710434317588806,0.1040075421333313,0.16092628240585327,-0.07952912151813507,0.046160127967596054,-0.11004431545734406,0.02288432978093624,0.19325663149356842,0.26469963788986206,-0.24743804335594177,0.05388038232922554,0.05382877588272095,-0.06468036770820618,0.2873764932155609,-0.3379637598991394,0.09097910672426224,0.024412833154201508,-0.17362254858016968,0.04541334509849548,0.19075538218021393,-0.08013558387756348,0.23872749507427216,0.2254294753074646,0.0868455022573471,0.29714372754096985,-0.020899277180433273,0.20866575837135315,-0.05129322409629822,0.04077624902129173,-0.07440174371004105,-0.11163701862096786,-0.03662925213575363,0.08475655317306519,-0.036242347210645676,-0.13839218020439148,-0.11919724196195602,-0.043483130633831024,-0.023209979757666588,0.00044151206384412944,0.09181671589612961,-0.020206600427627563,0.0472608245909214,0.20639437437057495,-0.17936749756336212,0.022812820971012115,-0.01417864765971899,-0.0890100747346878,-0.06900675594806671,0.09387318789958954,-0.24852563440799713,-0.25463518500328064,0.10854815691709518,-0.01122981496155262,0.10222802311182022,-0.09316647052764893,-0.058402713388204575,0.1611272245645523,0.041542038321495056,0.08558015525341034,-0.1636555939912796,-0.04924498870968819,0.10989531129598618,0.07938895374536514,0.03285520523786545,-0.060081638395786285,-0.10155299305915833,-0.08961062878370285,-0.0177605040371418,-0.0853009894490242,-0.1016351580619812,0.10809773951768875,-0.0026362924836575985,-0.06312684714794159,-0.03706926852464676,0.0915490910410881,0.11959623545408249,-0.039471935480833054,0.08106911927461624,0.0054292683489620686,0.003374292515218258,-0.06603997200727463,-0.09264197945594788,-0.1718996912240982,-0.03587599843740463,-0.2050718516111374,0.06521555781364441,-0.034414734691381454,0.21826030313968658,-0.034470926970243454,0.10695701092481613,-0.09299738705158234,-0.16262853145599365,-0.12296929210424423,-0.07431316375732422,-0.230329692363739,0.0015064649051055312,0.10865435004234314,-0.03339153528213501,-0.1400383561849594,-0.14654570817947388,0.08437181264162064,-0.025327445939183235,-0.06970140337944031,-0.03217179700732231,-0.2833476662635803,-0.20367559790611267,0.022116411477327347,0.07533066719770432,-0.17508040368556976,0.09028118848800659,0.02961837127804756,-0.03411542624235153,-0.05960041657090187,0.14029181003570557,-0.1604994684457779,0.026870284229516983,0.11906982958316803,-0.0631716176867485,-0.15910273790359497,-0.06125657260417938,0.17602373659610748,0.10205566883087158,-0.02528875693678856,0.17901435494422913,0.035393163561820984,0.07495216280221939,0.012610204517841339,0.13439902663230896,-0.08047718554735184,0.014461916871368885,0.013086242601275444,0.23918482661247253,-0.1057187169790268,-0.2121332436800003,0.21724312007427216,-0.16979359090328217,0.08199220150709152,-0.09639907628297806,-0.03831940144300461,-0.03548334538936615,0.14587396383285522,0.15164701640605927,0.17359405755996704,-0.13835711777210236,-0.010523159988224506,0.12807238101959229,0.11280439049005508,0.07930426299571991,0.05613824352622032,0.10483859479427338,-0.02100697159767151,0.006143472623080015,-0.03561028838157654,-0.05480337142944336,-0.04384544491767883,-0.33273187279701233,0.08757573366165161,0.10172122716903687,0.018193315714597702,0.08168874680995941,0.06528310477733612,-0.028549088165163994,-0.09590575098991394,-0.0020921765826642513,-0.003528374480083585,-0.06777878850698471,-0.011569032445549965,0.047207701951265335,0.11449448019266129,0.0008729011169634759,-0.11793056130409241,0.0476006381213665,0.057350460439920425,0.08842843025922775,0.07534917443990707,0.05719177424907684,0.09986359626054764,0.06790181249380112,0.07817323505878448,0.07198134064674377,0.07568743079900742,0.28377118706703186,-0.015621352009475231,-0.11835792660713196,-0.02556251920759678,0.08216426521539688,0.15746723115444183,-0.0525042787194252,0.14003553986549377,0.18498727679252625,0.13258413970470428,-0.07416131347417831,0.05242575705051422,-0.031225480139255524,-0.13574309647083282,0.011977300979197025,-0.12374041974544525,-0.14186275005340576,-0.22470849752426147,-0.16596710681915283,-0.022599080577492714,-0.049516454339027405,0.07117792218923569,-0.06738410145044327,0.1602098047733307,-0.06570413708686829,0.15066616237163544,-0.06663019210100174,-0.008742823265492916,0.2548738718032837,-0.19969260692596436,-0.07804369181394577,0.1613498330116272,0.07191722840070724,-0.006700838916003704,-0.09093662351369858,0.12324962019920349,-0.08740691840648651,0.04299219325184822,-0.1482657790184021,0.0023461782839149237,0.20080509781837463,0.13142360746860504,0.054081790149211884,0.08787364512681961,-0.10009583085775375,0.1801237165927887,0.03791699558496475,0.21746444702148438,0.04569792374968529,0.08798431605100632,0.010016980580985546,-0.18499574065208435,-0.19146978855133057,-0.07503549754619598,-0.11438337713479996,-0.08771619945764542,-0.009125740267336369,-0.09615100920200348,-0.09581546485424042,-0.024437764659523964,-0.03501072898507118,0.032248783856630325,-0.11885572969913483,0.13658498227596283,-0.21893426775932312,-0.019617265090346336,-0.2841579020023346,-0.10705938935279846,0.09506931900978088,0.13925422728061676,-0.1309407353401184,-0.24003209173679352,0.11515472084283829,-0.10579902678728104,-0.07947943359613419,-0.04641994088888168,-0.12910278141498566,-0.01167652290314436,0.10490395128726959,0.18652400374412537,0.1554812788963318,0.11021073907613754,0.13957759737968445,0.15924972295761108,0.2373502105474472,-0.016491184011101723,-0.03583133965730667,-0.03880240023136139,0.007414987776428461,0.11358272284269333,-0.054407425224781036,-0.025670569390058517,0.05222366377711296,0.05744873359799385,0.011034158989787102,-0.02555074729025364,-0.019890494644641876,0.012116637080907822,-0.011621558107435703,0.1702619343996048,0.10143759846687317,0.12243492156267166,0.07399602979421616,-0.08645040541887283,-0.05173506587743759,0.14754000306129456,-0.05964939296245575,0.060377735644578934,0.1316440999507904,0.08772047609090805,0.019610214978456497,0.0777682363986969,-0.1327623873949051,-0.2649746835231781,0.06847396492958069,-0.10884083062410355,0.06221216544508934,0.047724369913339615,-0.10657120496034622,-0.09961418807506561,0.099000483751297,0.11103939265012741,0.1332971751689911,0.09738864004611969,0.17456252872943878,-0.14309200644493103,0.017589246854186058,-0.13802587985992432,0.00166084966622293,0.10322756320238113,0.14392052590847015,0.0956413745880127,-0.08971033990383148,0.015641717240214348,-0.04244369640946388,-0.06789250671863556,0.1200753003358841,0.18315908312797546,-0.15548984706401825
Be,0.07422912865877151,-0.05015930160880089,0.00654699606820941,0.2169947624206543,-0.12789055705070496,-0.07137782126665115,0.14918191730976105,0.17920975387096405,-0.07081674784421921,-0.1307525485754013,-0.05296039581298828,0.04869912564754486,0.13504783809185028,-0.03992624208331108,-0.01469843927770853,-0.10222184658050537,-0.010846942663192749,0.04148509353399277,-0.19929289817810059,0.15583065152168274,-0.10094553232192993,-0.18765859305858612,-0.10541103780269623,0.03896301984786987,0.03896825760602951,-0.22405119240283966,-0.07195079326629639,-0.1955692023038864,-0.02914845012128353,0.03596723824739456,-0.10208053886890411,-0.1108667179942131,0.028286999091506004,0.034502603113651276,-0.13557155430316925,0.08223631978034973,-0.03364184498786926,0.001130803138948977,0.026018349453806877,0.03717043250799179,-0.04299704730510712,0.041010454297065735,0.07465270906686783,-0.12061170488595963,-0.06412462145090103,0.022790752351284027,-0.058365169912576675,0.014724685810506344,-0.07928665727376938,0.06947766244411469,-0.031054817140102386,0.07691284269094467,-0.2027410864830017,0.028918681666254997,0.019633596763014793,-0.02052757516503334,0.14696162939071655,0.06241745501756668,0.003297956893220544,0.0998203232884407,-0.303073525428772,-0.05629844218492508,0.02558629773557186,-0.0594528429210186,-0.09240346401929855,-0.11353397369384766,0.010934230871498585,-0.022485412657260895,-0.009183600544929504,0.09206624329090118,0.10123088955879211,0.0011427267454564571,0.06834888458251953,0.20257282257080078,0.06662976741790771,0.1321854144334793,0.05571489408612251,-0.1502636969089508,0.017332931980490685,0.07181508839130402,-0.017914030700922012,0.05399705469608307,0.10341422259807587,-0.03750493749976158,0.16390475630760193,-0.0030459733679890633,0.12111686915159225,-0.25286155939102173,-0.11971864849328995,-0.08575845509767532,0.10572992265224457,-0.15187756717205048,-0.0662980005145073,-0.02383175492286682,-0.0013818434672430158,0.041629690676927567,0.13878874480724335,-0.2906104028224945,-0.015185393393039703,0.09451107680797577,-0.250282883644104,-0.30452802777290344,-0.054156988859176636,0.17020829021930695,0.0043136924505233765,0.12534059584140778,-0.046685416251420975,-0.10441743582487106,-0.23650746047496796,-0.09034473448991776,-0.15920399129390717,-0.022393211722373962,-0.05625983327627182,0.07555140554904938,-0.018530236557126045,-0.12706004083156586,0.17051754891872406,0.10184945911169052,-0.00023933984630275518,0.03251338750123978,0.015468234196305275,0.06473887711763382,0.09272852540016174,-0.007731602527201176,0.06789323687553406,-0.06962195783853531,-0.19189845025539398,-0.051954325288534164,0.00046337689855135977,0.103754423558712,0.018588414415717125,0.10207601636648178,-0.2766675353050232,-0.1457158327102661,-0.036984462291002274,-0.021454429253935814,-0.01093295868486166,0.006442165467888117,-0.14400318264961243,0.010851583443582058,0.1870185285806656,0.00799065362662077,0.1603957712650299,0.1554708331823349,0.17045988142490387,-0.0713992789387703,-0.12484388798475266,0.1868496835231781,-0.1584896743297577,0.014114639721810818,0.1071380078792572,-0.1441350281238556,0.018045715987682343,0.1335764080286026,-0.12603168189525604,-0.08214282989501953,0.0207199864089489,-0.037358950823545456,-0.03666108101606369,-0.06297888606786728,-0.18749769032001495,0.080679751932621,0.0632171481847763,-0.036402348428964615,0.1786424219608307,0.059246111661195755,0.10748755186796188,0.18809475004673004,-0.06732763350009918,0.05002719908952713,0.07149837911128998,-0.08889574557542801,0.17428861558437347,-0.07706114649772644,-0.023095108568668365,0.0026894565671682358,0.0867275521159172,-0.11667528748512268,-0.14216777682304382,-0.04039037227630615,-0.02513231709599495,-0.09206118434667587,0.13934636116027832,0.08198178559541702,-0.11021458357572556,0.14357507228851318,-0.03563453257083893,-0.009624341502785683,0.038343627005815506,0.1067049652338028,-0.03133876249194145,-0.14083299040794373,-0.09976303577423096,0.093821220099926,-0.18834897875785828,-0.11911007761955261,-0.07760076224803925,0.10195226222276688,0.06588757038116455,0.1297798454761505,0.021782273426651955,0.04328957572579384,0.20938412845134735,0.1147821843624115,-0.014667145907878876,0.2512125074863434,-0.03494395688176155,-0.07017464190721512,0.02177165076136589,-0.012658374384045601,-0.011465059593319893,-0.09433010965585709,-0.17244768142700195,-0.030487244948744774,0.1814287006855011,0.12959136068820953,0.03343278914690018,0.08439551293849945,-0.2045103907585144,-0.008494848385453224,-0.16821518540382385,-0.18937084078788757,0.03598998486995697,-0.05850136652588844,0.053683582693338394,0.09543643146753311,-0.01048218086361885,-0.07494072616100311,-0.11423634737730026,-0.20723062753677368,0.08855380117893219,0.03491587191820145,-0.018942488357424736,0.16165444254875183,0.21595440804958344,0.08849366754293442,-0.24016094207763672,0.22536081075668335,0.019612973555922508,-0.0020107885356992483,0.09268130362033844,-0.12079249322414398,0.038969092071056366,0.10640495270490646,-0.02331918478012085,0.2309110462665558,0.054027169942855835,0.10277339071035385,0.031215382739901543,0.15810881555080414,0.08065444976091385,-0.21903111040592194,0.04233537241816521,-0.020435770973563194,0.25206857919692993,0.15144215524196625,-0.12362784892320633,-0.1771637350320816,-0.10283204168081284,0.11455770581960678,0.14501655101776123,-0.04542732238769531,0.108376145362854,0.08249524235725403,-0.047455813735723495,-0.08000966906547546,0.08011966943740845,0.0826461985707283,0.018365919589996338,0.10338544100522995,0.11263387650251389,0.1477319747209549,0.10147318989038467,0.008934052661061287,-0.12995611131191254,-0.1570463329553604,0.026990782469511032,-0.11377165466547012,-0.022028833627700806,0.08341144770383835,-0.05534393712878227,0.1558702141046524,0.20317639410495758,0.1888829469680786,-0.11986622214317322,-0.05491117388010025,0.2145458310842514,0.05157879739999771,0.2865408658981323,0.1783379167318344,0.0621831975877285,0.07406028360128403,0.0693993791937828,0.03983102738857269,0.08660207688808441,-0.11013409495353699,-0.23098383843898773,-0.23146066069602966,0.06900252401828766,-0.0012780440738424659,-0.07699362188577652,-0.2089877426624298,-0.09690308570861816,-0.0853145495057106,0.16522598266601562,0.06920415908098221,-0.20595435798168182,-0.1803944855928421,0.18768705427646637,0.1087241917848587,-0.07028967887163162,0.017554858699440956,-0.12678927183151245,0.26273664832115173,-0.006076888646930456,-0.012092530727386475,0.018932664766907692,0.08103585243225098,0.0006730086170136929,0.08443647623062134,-0.1292114406824112,0.08948355168104172,-0.007837940007448196,0.1282873898744583,-0.09986445307731628,-0.05174262821674347,-0.16125474870204926,0.09506829082965851,0.05710363760590553,-0.06041957810521126,0.11597022414207458,-0.1172080934047699,0.19923442602157593,-0.11536713689565659,0.1377415955066681,-0.052348826080560684,-0.13799281418323517,0.1297774463891983,0.08882630616426468,-0.156749427318573,0.11265309154987335,0.1617065668106079,0.11746060103178024,0.019939301535487175,0.021877558901906013,-0.0040704552084207535,-0.09886933118104935,0.004076773300766945,0.07722213119268417,0.1140303835272789,0.13154730200767517,0.03009846992790699,0.18322396278381348,-0.12265221774578094,-0.15589861571788788,-0.0894390121102333,-0.16029030084609985,-0.044613271951675415,0.09655594825744629,0.007690022233873606,0.08785439282655716,0.04670009762048721,-0.23032505810260773,-0.016014017164707184,0.0520634762942791,0.008655395358800888,-0.02677689678966999,0.04447462782263756,-0.0735640898346901,0.1212603971362114,-0.18364524841308594,0.10832372307777405,-0.04440990090370178,-0.019428687170147896,-0.036447007209062576,-0.08586900681257248,-0.17380854487419128,-0.08420421928167343,0.20874564349651337,0.05210927501320839,-0.06536261737346649,0.06075258180499077,0.031012311577796936,-0.1437108814716339,-0.0213166493922472,0.2546819746494293,-0.007246308494359255,-0.1374157965183258,-0.2130548059940338,0.14463910460472107,-0.12972290813922882,-0.21745862066745758,-0.0447235181927681,0.21256615221500397,-0.005637459922581911,-0.009417559951543808,0.08316303789615631,-0.05772586166858673,0.0473150908946991,-0.08214174211025238,-0.06296062469482422,0.21361494064331055,0.08651547878980637,0.039437372237443924,-0.0032255006954073906,0.053422413766384125,-0.1527213752269745,-0.07686154544353485,-0.0799771100282669,-0.058517515659332275,0.08235490322113037,-0.21627044677734375,0.09793169051408768,0.06462988257408142,0.12738573551177979,0.11011477559804916,0.10053525865077972,-0.08519840985536575,0.07289724051952362,0.010211293585598469,0.22765040397644043,-0.17894798517227173,-0.05370517820119858,-0.09140511602163315,-0.08680624514818192,-0.21488124132156372,-0.21478614211082458,0.003794287098571658,-0.18243169784545898,-0.06458178907632828,-0.050881508737802505,-0.13372720777988434,-0.18119418621063232,-0.021239593625068665,0.17777574062347412,-0.0975031703710556,-0.10173701494932175,-0.20246559381484985,-0.03693066164851189,0.028163425624370575,-0.0866636112332344,0.10865628719329834,-0.010137445293366909,-0.026514945551753044,-0.08335331827402115,0.04036489129066467,-0.13159824907779694,-0.00032870974973775446,-0.09272590279579163,-0.15820875763893127,-0.013252614066004753,0.07859428226947784,-0.06424279510974884,0.16223686933517456,-0.04525716230273247,0.222966730594635,0.07079410552978516,0.06297285109758377,-0.026172684505581856,-0.08649933338165283,0.0781889483332634,0.07060472667217255,0.11161413043737411,-0.1870918720960617,0.012983930297195911,0.04047226905822754,-0.017886310815811157,-0.004799100570380688,-0.0801284909248352,0.00456065172329545,0.13483548164367676,0.06325987726449966,0.14860251545906067,0.0888906940817833,0.11620935052633286,0.05469954386353493,0.1392303705215454,0.045017845928668976,0.09727539867162704,-0.08603853732347488,0.0021513288374990225,0.021008672192692757,0.12032391875982285,0.15701201558113098,0.06662723422050476,-0.009078139439225197,-0.3231714069843292,0.028415575623512268,0.07948268949985504,0.05327451601624489,0.13288256525993347,-0.10943073034286499,0.10609105229377747,0.04075899347662926,-0.013248712755739689,-0.01713792234659195,0.09810148179531097,0.1282220035791397,-0.08152403682470322,-0.2080957591533661,-0.07425510883331299,0.011215467937290668,0.13719522953033447,0.17854514718055725,-0.09542883187532425,0.041476793587207794,0.043171755969524384,-0.2061365693807602,-0.06039625033736229,-0.042365122586488724,0.09158468246459961,-0.02122478373348713
B,0.07000719755887985,-0.04910239204764366,-0.027801034972071648,0.13363438844680786,0.09292582422494888,0.06717289984226227,0.12274337559938431,0.2268275022506714,-0.020502349361777306,-0.24386398494243622,0.040413159877061844,0.07987964153289795,0.21910785138607025,0.07581353187561035,-0.014588878490030766,-0.15495723485946655,-0.09417761117219925,-0.027828339487314224,0.07256872206926346,0.04729510471224785,0.10654952377080917,-0.13566811382770538,0.08486240357160568,0.03402896225452423,0.05732474476099014,-0.07486913353204727,0.008399817161262035,-0.09263309091329575,-0.059277795255184174,-0.015787044540047646,-0.10032998025417328,-0.20008672773838043,-0.010501943528652191,0.056167397648096085,-0.12112193554639816,-0.09062197059392929,0.1720656454563141,-0.01666155830025673,-0.1384405791759491,0.09971752017736435,-0.11688028275966644,0.14794610440731049,0.1316043585538864,0.01574868895113468,-0.01801084727048874,0.16319876909255981,0.04382947087287903,0.009857303462922573,-0.12900100648403168,0.046141739934682846,-0.06157037615776062,0.08217140287160873,-0.15773379802703857,0.12432664632797241,0.02862023189663887,-0.09873763471841812,0.11488207429647446,-0.036923378705978394,-0.039311446249485016,-0.0032482855021953583,-0.15269140899181366,-0.09978821873664856,-0.0031754758674651384,-0.024200541898608208,-0.10196176916360855,-0.11257366836071014,-0.03379565477371216,0.06383365392684937,0.061403896659612656,0.006215495523065329,0.161333367228508,0.13479134440422058,0.10506749898195267,-0.06310112774372101,0.07824794948101044,-0.013550677336752415,0.19797809422016144,-0.07235505431890488,-0.06267016381025314,-0.012026096694171429,-0.03138109669089317,0.10226588696241379,0.037218403071165085,-0.02759811282157898,-0.12116952985525131,-0.09655477851629257,0.16601593792438507,0.05510922521352768,-0.05099111422896385,0.01638450287282467,0.32125166058540344,-0.17353208363056183,-0.02384670078754425,-0.11854571104049683,-0.03135885298252106,-0.03654041886329651,-0.0743880495429039,0.08839932084083557,0.001631018240004778,-0.1845856010913849,-0.021190190687775612,0.13595470786094666,-0.05068016052246094,0.012132828123867512,0.10061663389205933,0.252526193857193,0.03129751980304718,-0.05848545953631401,-0.1219230443239212,0.19203846156597137,-0.042977310717105865,0.11513452231884003,-0.11925876885652542,-0.03490963578224182,0.13047556579113007,-0.12478966265916824,0.012858306989073753,0.196885347366333,-0.036869775503873825,-0.009363135322928429,-0.07215673476457596,0.04158085957169533,0.12070868909358978,-0.027347330003976822,-0.03334570303559303,-0.05074264109134674,-0.0246270839124918,0.007889099419116974,0.08666879683732986,-0.008211225271224976,0.008608373813331127,0.11410343647003174,-0.006149798631668091,0.05133926868438721,-0.1891215294599533,-0.013721129857003689,-0.025793051347136497,0.12872466444969177,-0.028465325012803078,-0.06467064470052719,0.11842457950115204,0.26155129075050354,0.11867031455039978,-0.11284530162811279,0.06211572512984276,-0.09476879984140396,0.026076018810272217,0.1483566015958786,-0.07273157685995102,-0.08362441509962082,0.1689719408750534,-0.00418363232165575,-0.02361333556473255,0.06717341393232346,-0.08670578896999359,0.06981106102466583,-0.0012947770301252604,-0.17013776302337646,0.05825323238968849,-0.07443618029356003,-0.10248638689517975,0.07325141876935959,-0.060739580541849136,0.053252920508384705,0.1430329978466034,0.06843344867229462,-0.0048475731164216995,0.2435545027256012,0.005476395599544048,0.11753936111927032,0.10939235240221024,-0.07049646973609924,0.11982768774032593,0.04862368851900101,-0.06881903856992722,-0.001991586061194539,0.062222566455602646,-0.04739882051944733,-0.10838806629180908,-0.03454764187335968,0.07264394313097,-0.04280297830700874,0.061645448207855225,-0.23643870651721954,-0.11701247096061707,0.05833083763718605,0.06388543546199799,-0.14509569108486176,0.13081957399845123,0.06859613209962845,-0.13061340153217316,-0.1529565304517746,-0.09302676469087601,0.08177109807729721,-0.007932255044579506,0.05579815432429314,0.12264413386583328,-0.050172109156847,0.15655776858329773,0.14970357716083527,-0.001497838762588799,-0.016253069043159485,-0.15900784730911255,-0.07054295390844345,0.05343569442629814,-0.2393600046634674,-0.13270775973796844,-0.17284038662910461,0.10766485333442688,-0.1880999356508255,-0.09740715473890305,-0.1698189377784729,-0.20394420623779297,0.08038260787725449,0.16473089158535004,0.06403873860836029,-0.0505402609705925,0.010509304702281952,-0.03299250453710556,-0.03079519048333168,-0.026054011657834053,-0.16515542566776276,0.1555282324552536,0.03812322020530701,0.013012252748012543,-0.054286908358335495,-0.025625405833125114,0.04678360000252724,-0.14499874413013458,-0.15410979092121124,0.3062288463115692,0.13064874708652496,0.07681385427713394,0.16979984939098358,-0.03810735419392586,-0.14691874384880066,0.030359484255313873,-0.027827763929963112,0.08644955605268478,-0.08572013676166534,0.06522540748119354,0.06549636274576187,-0.21038274466991425,0.11236779391765594,0.00865113828331232,-0.05198201164603233,0.005936099216341972,0.09658190608024597,0.03822685778141022,0.005859936121851206,0.07326008379459381,0.0908937081694603,0.08697909116744995,-0.11565184593200684,-0.005928376689553261,0.11465293914079666,0.11949422210454941,-0.10324100404977798,0.012624723836779594,-0.12796343863010406,0.08021397888660431,0.004690992180258036,0.03446842357516289,0.04834664240479469,-0.03210417553782463,0.09923568367958069,0.07245790213346481,-0.0694989264011383,0.0057794684544205666,-0.027420423924922943,0.07621483504772186,0.021638235077261925,0.12377826869487762,0.06955713033676147,0.01753690466284752,0.13802331686019897,-0.09766282141208649,0.053591690957546234,0.014251724816858768,0.08363340049982071,-0.07539528608322144,-0.030629025772213936,0.10342627018690109,0.10221156477928162,-0.12121403962373734,-0.0925341546535492,0.18099017441272736,0.11679697781801224,-0.07707183808088303,-0.016364511102437973,0.021732253953814507,-0.16028250753879547,0.10657168179750443,0.08942608535289764,0.19594599306583405,0.09388439357280731,-0.31649279594421387,-0.20685015618801117,0.0370560847222805,-0.008894742466509342,0.146431103348732,-0.022334670647978783,0.21670088171958923,-0.0274385754019022,0.10841068625450134,0.2085033804178238,0.007868427783250809,-0.0014815704198554158,0.07038398087024689,0.06899265944957733,-0.024226142093539238,-0.046987272799015045,-0.027976909652352333,0.20444048941135406,0.1384543627500534,-0.017457371577620506,-0.10473893582820892,-0.02233854867517948,0.010542658157646656,0.12109692394733429,-0.12959600985050201,0.01734759286046028,-0.22452019155025482,-0.07805861532688141,-0.08721715956926346,-0.09595434367656708,-0.043965235352516174,-0.16154855489730835,0.11191555857658386,-0.05552972853183746,-0.08816640824079514,-0.1788773387670517,-0.04670754820108414,-0.17069244384765625,0.11678518354892731,-0.008733142167329788,0.0238265972584486,0.08073063939809799,0.0479518286883831,0.023945610970258713,-0.05126907303929329,0.02825741656124592,0.25551095604896545,0.06244754046201706,0.0158108901232481,0.13609471917152405,-0.28131377696990967,-0.13497820496559143,-0.016293128952383995,0.08762872964143753,0.1508370041847229,-0.01122278068214655,0.16592977941036224,0.07072819769382477,-0.1314501166343689,-0.09803848713636398,0.10698551684617996,-0.0664476528763771,-0.12676182389259338,-0.0752585157752037,0.06360875070095062,0.22584044933319092,-0.11879309266805649,-0.06632693856954575,-0.00595690356567502,-0.09987283498048782,-0.012737756595015526,0.16935357451438904,-0.11019650101661682,-0.035688746720552444,-0.167616605758667,-0.08795112371444702,-0.07627611607313156,-0.006819879170507193,-0.04331441596150398,-0.1793966293334961,-0.007477942388504744,-0.01118791475892067,-0.057298559695482254,0.1299203485250473,-0.007833662442862988,0.015654537826776505,0.06447649747133255,-0.20168150961399078,-0.0568787157535553,0.06204889342188835,0.06145025044679642,-0.18754838407039642,-0.18545478582382202,0.1702384501695633,-0.12391694635152817,-0.07822344452142715,-0.0031084215734153986,0.04587223753333092,0.025506097823381424,-0.016832849010825157,0.13924077153205872,-0.050276026129722595,-0.008901705034077168,-0.0736197903752327,0.015193489380180836,0.020875923335552216,0.11633351445198059,0.1310936063528061,0.06780664622783661,0.03821702301502228,0.055016014724969864,-0.020434504374861717,0.12499650567770004,0.0018814225913956761,-0.059203047305345535,-0.037428006529808044,0.12772095203399658,-0.07138575613498688,-0.05193793773651123,-0.037519145756959915,0.08096279203891754,-0.0768924206495285,0.17171934247016907,0.011021215468645096,0.14283686876296997,-0.06722214818000793,-0.4011969566345215,-0.10337155312299728,-0.061295587569475174,-0.09895295649766922,0.00291154976002872,0.1540961116552353,-0.20877502858638763,-0.1280871480703354,-0.08931855857372284,-0.07900852710008621,0.12237425148487091,-0.11776728928089142,-0.11483465880155563,-0.09837880730628967,-0.16885940730571747,-0.2890443801879883,-0.07021384686231613,0.06665966659784317,-0.02713448368012905,-0.0759974867105484,-0.1352396458387375,0.1355358511209488,-0.20239537954330444,-0.12197696417570114,-0.11160232871770859,0.06397388875484467,-0.027910012751817703,-0.02107103168964386,0.05487712845206261,0.10648243874311447,-0.0472407191991806,0.10547318309545517,0.08843912184238434,0.0790802538394928,-0.014082695357501507,0.022465957328677177,-0.03523557260632515,-0.1314266324043274,0.0932389423251152,-0.2675211429595947,0.09461651742458344,-0.004026941489428282,-0.10984518378973007,0.05136890709400177,0.08251771330833435,-0.0719396248459816,-0.12192396819591522,0.013321378268301487,-0.05493354797363281,0.05388396233320236,0.011034470982849598,0.09271121025085449,0.17165550589561462,0.006040753796696663,-0.1215672567486763,0.10246576368808746,-0.08231832832098007,-0.029600776731967926,-0.1134198009967804,-0.020716089755296707,0.1517307311296463,0.013731304556131363,0.049743443727493286,0.11704044789075851,0.07401833683252335,0.06267133355140686,-0.05579088255763054,0.14129172265529633,0.06293856352567673,-0.057945769280195236,-0.12195099890232086,0.08853335678577423,-0.05796552449464798,-0.07495224475860596,-0.16309316456317902,0.09771323949098587,-0.24917595088481903,-0.020637184381484985,-0.15631000697612762,-0.0497417151927948,0.19983580708503723,0.19179123640060425,-0.16256612539291382,0.15503405034542084,0.0808200016617775,-0.19516177475452423,-0.05477127805352211,0.09412487596273422,-0.08922150731086731,0.06885505467653275
C,0.1854729950428009,-0.020284822210669518,0.017477842047810555,0.04265120252966881,-0.09903030097484589,0.20177680253982544,0.045496899634599686,0.155864417552948,-0.12947680056095123,-0.07916825264692307,-0.09985420852899551,-0.025686727836728096,-0.15670327842235565,0.09314122051000595,-0.20191892981529236,-0.13327887654304504,-0.13930721580982208,0.0599207766354084,-0.09337584674358368,-0.03469345346093178,0.02258792519569397,-0.13228043913841248,-0.022219669073820114,-0.11218903213739395,0.06843100488185883,0.12916679680347443,0.06954769045114517,0.10015758872032166,-0.04821047559380531,-0.06624657660722733,-0.09856737405061722,-0.15097899734973907,-0.05498620122671127,0.018898645415902138,-0.02359926328063011,-0.12030167877674103,0.1192711889743805,0.11331971734762192,-0.029041079804301262,0.06557420641183853,0.0849364772439003,0.24032512307167053,-0.07671471685171127,0.14871162176132202,-0.02589791640639305,0.0649273544549942,-0.2415103316307068,0.09464846551418304,-0.1262679100036621,0.050220418721437454,-0.0028220564126968384,0.20791031420230865,-0.0872337743639946,-0.03264119103550911,0.09217032045125961,-0.14934730529785156,0.14690037071704865,-0.010522349737584591,-0.14235439896583557,-0.03341718763113022,-0.08385000377893448,-0.08442851155996323,0.017752505838871002,0.039173372089862823,-0.0844530314207077,-0.0006217174232006073,-0.17809979617595673,-0.03363432735204697,0.07326100021600723,0.15603962540626526,-0.06647106260061264,-0.10860410332679749,-0.044003069400787354,-0.19847075641155243,-0.13634967803955078,0.04904691129922867,0.04196479544043541,0.14427641034126282,-0.08302988857030869,0.10341774672269821,0.04512019455432892,0.10216602683067322,-0.24508501589298248,0.05867396667599678,-0.03535603731870651,-0.2000242918729782,0.021512484177947044,0.06775760650634766,-0.2678196430206299,0.113920658826828,0.12384457141160965,0.0119129354134202,-0.09371297061443329,0.040125682950019836,0.06092018261551857,0.1267659217119217,-0.023648448288440704,0.11592371016740799,-0.043877121061086655,-0.1304873675107956,-0.11273454129695892,0.024139372631907463,0.0032221688888967037,0.12802422046661377,0.0296653900295496,0.01372155174612999,0.02176988311111927,-0.22579029202461243,0.09922830015420914,-0.055709756910800934,-0.03243037313222885,0.16968707740306854,-0.041667260229587555,-0.07440054416656494,0.007435525301843882,-0.016831280663609505,0.06922578811645508,-0.17321282625198364,-0.06877105683088303,0.07321994006633759,-0.013194854371249676,0.11281881481409073,0.07665431499481201,0.05817372351884842,0.05569315701723099,-0.104534812271595,0.09425735473632812,-0.09499572217464447,0.06715106964111328,0.17054539918899536,-0.10806858539581299,-0.2667281925678253,-0.04127538576722145,-0.1106458231806755,0.12443482875823975,0.05134632810950279,-0.0783727765083313,-0.11578868329524994,0.08887117356061935,0.03964734077453613,0.15568968653678894,0.15789860486984253,0.11840672045946121,0.09961891919374466,-0.14667202532291412,-0.19222420454025269,-0.07470273971557617,0.2032461315393448,-0.19062674045562744,0.10006621479988098,0.02262795716524124,0.17185518145561218,0.06833680719137192,-0.004760217387229204,-0.25383973121643066,-0.02470719814300537,0.12021031230688095,-0.18974044919013977,0.04040078446269035,0.07649805396795273,0.0044400328770279884,0.08380638062953949,-0.05583818256855011,-0.11518193781375885,-0.08842990547418594,-0.08824825286865234,0.05067954212427139,0.3097617030143738,0.04948785528540611,0.07086076587438583,-0.12878315150737762,0.009318757802248001,0.06699077785015106,-0.00846006441861391,0.02806105650961399,0.06414975225925446,-0.03558456152677536,0.030614197254180908,0.02834939956665039,-0.17597423493862152,0.020054064691066742,-0.020187828689813614,-0.07883501052856445,-0.018451111391186714,-0.15090550482273102,0.162978857755661,-0.01966763101518154,-0.21912498772144318,0.09530829638242722,-0.02332533709704876,-0.10890275239944458,-0.1731177717447281,-0.07634802907705307,0.020191889256238937,-0.21130502223968506,0.042693644762039185,0.1415938138961792,0.12176454067230225,-0.1015259176492691,-0.08227214962244034,0.13833440840244293,-0.15429797768592834,0.14363358914852142,0.036423210054636,-0.02816617488861084,-0.0017876287456601858,-0.04544989764690399,-0.12263960391283035,0.10044970363378525,-0.1757764369249344,0.08491010218858719,-0.2382904291152954,-0.07686860859394073,0.06053485348820686,0.3104308843612671,-0.011050396598875523,-0.07010453939437866,0.101690374314785,0.07662247866392136,-0.04736495763063431,0.004377036355435848,-0.19591085612773895,-0.004483549389988184,-0.019347919151186943,-0.025063522160053253,0.02041463367640972,0.0036632665432989597,0.2143305093050003,0.09140920639038086,0.06028653681278229,0.2170436829328537,0.166953444480896,-0.22883182764053345,-0.019368700683116913,0.1675288826227188,0.12412908673286438,0.015519334934651852,-0.1686277687549591,0.010122337378561497,0.009320471435785294,0.0105715561658144,0.07404446601867676,0.058206234127283096,0.11975480616092682,0.11224370449781418,0.022420570254325867,0.05326343700289726,-0.05313781648874283,0.06797678023576736,-0.16936573386192322,0.00732297170907259,0.14522355794906616,0.051800090819597244,0.15938206017017365,-0.012042254209518433,-0.04573050141334534,0.0007149126031436026,-0.11816278100013733,-0.19262801110744476,-0.15501649677753448,-0.16508924961090088,0.06417127698659897,0.09715525060892105,-0.0058503360487520695,-0.009354728274047375,-0.09378427267074585,0.05721895769238472,0.02351674810051918,0.045005060732364655,0.08073101192712784,0.001605464261956513,0.14970017969608307,0.0088828569278121,-0.03006662242114544,-0.00371060729958117,0.014329307712614536,-0.2593522071838379,0.18955329060554504,0.07033050805330276,-0.12473747134208679,-0.13526427745819092,0.010817768052220345,0.08072435110807419,-0.012934793718159199,-0.010229963809251785,-0.07929453998804092,0.20692884922027588,-0.09120514243841171,-0.07453618198633194,0.042148567736148834,0.13528969883918762,-0.1526012122631073,-0.009841006249189377,0.2600061893463135,0.10433107614517212,-0.15045496821403503,-0.34410661458969116,0.04912995174527168,0.0353543758392334,-0.011834188364446163,0.018422232940793037,0.023031366989016533,0.14010962843894958,0.022298570722341537,0.04649876430630684,0.10721801966428757,0.05318709835410118,0.027842190116643906,-0.06874538958072662,-0.01858745887875557,-0.17140015959739685,-0.0499408058822155,0.009285502135753632,-0.028782906010746956,0.06122191250324249,-0.09552359580993652,-0.1441415548324585,0.19585078954696655,0.0773095041513443,-0.08656053990125656,0.07650657743215561,0.0273252185434103,-0.06663250178098679,-0.005094975233078003,-0.1006811112165451,-0.14168904721736908,-0.22237040102481842,-0.09926078468561172,0.14426231384277344,0.07041379064321518,-0.1364067941904068,-0.016490738838911057,-0.16596253216266632,-0.02649693377315998,0.15382729470729828,-0.21400156617164612,-0.02806181088089943,0.20179682970046997,-0.03915730491280556,-0.14116701483726501,0.07460981607437134,-0.007692001760005951,0.08176199346780777,-0.08460669219493866,-0.13927829265594482,0.11964680999517441,0.14300329983234406,0.031070055440068245,0.046047862619161606,0.0830187276005745,-0.006230142433196306,-0.05516177788376808,-0.04892031475901604,0.1295851171016693,-0.1222529411315918,0.04490610584616661,-0.10503850877285004,0.0008528766920790076,0.21964742243289948,-0.041203632950782776,0.09244391322135925,-0.03662726283073425,0.06870952248573303,0.061354175209999084,0.04308891296386719,0.07990358769893646,-0.08268950879573822,0.2622440457344055,-0.09845668822526932,0.1397286355495453,-0.11414830386638641,-0.09474897384643555,-0.03594112768769264,-0.11329446732997894,0.1650155633687973,-0.08821650594472885,-0.21808399260044098,-0.02957160770893097,-0.013830943964421749,-0.002576042665168643,-0.16253499686717987,-0.01926889829337597,0.24990315735340118,0.052639394998550415,-0.2189323455095291,0.06374894827604294,-0.07337469607591629,0.07648792862892151,0.06800615787506104,-0.007204854860901833,-0.14046001434326172,0.12004085630178452,-0.014285685494542122,0.10915303230285645,-0.08343108743429184,0.2374195158481598,0.10134109109640121,-0.04106796532869339,0.23411662876605988,0.11049753427505493,-0.10040078312158585,0.01683749631047249,0.17024677991867065,-0.14394815266132355,-0.14176511764526367,0.022129883989691734,-0.02820872887969017,-0.05204083025455475,-0.1964743733406067,-0.14500032365322113,-0.16188618540763855,0.24219492077827454,0.1717231124639511,-0.07015480101108551,0.16251547634601593,0.016552455723285675,0.0027863418217748404,-0.10609738528728485,0.09546560049057007,-0.0928555354475975,0.24772854149341583,-0.11712588369846344,0.02570461854338646,-0.16755987703800201,0.12833650410175323,0.017293894663453102,-0.15112686157226562,0.04794217646121979,-0.16879068315029144,0.026339519768953323,0.011260470375418663,-0.03226293995976448,0.058499544858932495,-0.12622012197971344,0.06972437351942062,0.028475966304540634,-0.06853630393743515,-0.06980039179325104,-0.15984554588794708,0.0671250969171524,-0.012402620166540146,-0.1013445034623146,-0.14479561150074005,0.15849444270133972,-0.06759517639875412,-0.18240486085414886,-0.1034671738743782,-0.09509330987930298,0.0016208570450544357,-0.045843690633773804,0.01904931850731373,-0.05580253154039383,0.020562510937452316,-0.018476447090506554,-0.10061997920274734,0.0443887785077095,-0.07224804162979126,0.31339430809020996,0.13746868073940277,-0.012227192521095276,0.16053438186645508,-0.1712389588356018,0.18942050635814667,-0.13710904121398926,-0.005109425168484449,0.1046082004904747,-0.08096698671579361,0.015662316232919693,0.14391343295574188,0.02867198921740055,0.04012635350227356,0.2195168137550354,-0.13334544003009796,-0.05548862740397453,0.03453945741057396,-0.03631879389286041,0.05044640600681305,0.08222489804029465,-0.003286058781668544,-0.06779692322015762,-0.04782768711447716,-0.23190811276435852,0.04379893094301224,0.14946725964546204,-0.023030970245599747,-0.15162111818790436,0.11236133426427841,0.10801761597394943,-0.001737594953738153,0.006597939878702164,-0.029551833868026733,-0.08762814104557037,-0.14657433331012726,0.11596544831991196,0.04446477070450783,-0.06377134472131729,-0.11344653367996216,0.2138991802930832,-0.005294449627399445,-0.023291602730751038,-0.1850133091211319,-0.042212702333927155,0.06705205887556076,0.09086877852678299,0.08317641168832779,0.08260393887758255,0.19442522525787354,-0.25246143341064453,-0.04966690391302109,0.1358022838830948,-0.13670620322227478,0.12241207808256149
N,0.07174290716648102,-0.11122681200504303,0.04452759400010109,-0.11131004244089127,0.03998180478811264,-0.027744874358177185,0.010935169644653797,0.15948344767093658,0.04136431962251663,-0.20399199426174164,-0.23277060687541962,-0.12164027243852615,0.020935101434588432,0.05812650918960571,-0.2058635950088501,0.1502312868833542,-0.13526679575443268,-0.0725625678896904,0.11976493895053864,0.15103337168693542,-0.056717678904533386,-0.002400294877588749,0.02908938191831112,-0.047886017709970474,0.08886396139860153,0.2039063721895218,0.10418765246868134,-0.13306018710136414,-0.11722363531589508,-0.05611731857061386,-0.09873193502426147,0.0186468418687582,-0.07335022836923599,0.1203741654753685,-0.1300341635942459,-0.1868087351322174,0.008622449822723866,0.14400693774223328,-0.20724770426750183,-0.0749492272734642,-0.09881953150033951,0.20107969641685486,-0.05310261622071266,0.037567153573036194,0.05129760131239891,0.14101135730743408,0.03731820732355118,0.11493109166622162,0.1279251128435135,-0.028799204155802727,0.03448014333844185,-0.00393602205440402,-0.16456186771392822,0.17187708616256714,0.08751671761274338,-0.0862642228603363,0.18913444876670837,-0.181635320186615,0.26363134384155273,-0.03102315589785576,-0.027046380564570427,0.019574029371142387,-0.0034406345803290606,0.15325072407722473,-0.1801549196243286,0.19092826545238495,-0.21607063710689545,-0.1253286600112915,0.18830786645412445,-0.015095089562237263,-0.12298817932605743,0.11996990442276001,0.004412972368299961,0.034041211009025574,-0.031364236027002335,0.043443214148283005,0.24143221974372864,-0.1445075422525406,-0.10872790962457657,0.15951132774353027,-0.015235677361488342,0.11984481662511826,-0.19593465328216553,0.03201209008693695,0.0007697167457081378,0.14072111248970032,-0.10456611961126328,0.09809824079275131,-0.15182825922966003,-0.020663589239120483,0.11661109328269958,0.038537461310625076,-0.11790193617343903,0.012032395228743553,0.09745816141366959,0.04719974473118782,0.04760829359292984,0.08532945811748505,0.06646846234798431,-0.22149282693862915,0.06137590482831001,0.1622871309518814,0.01420129556208849,-0.1433526575565338,-0.03057187795639038,-0.14979667961597443,0.0025628891307860613,-0.10559795796871185,0.025532566010951996,0.011374181136488914,-0.037587154656648636,-0.02334650047123432,-0.04451723024249077,0.031197011470794678,0.05167558789253235,-0.179376482963562,-0.08013589680194855,0.05679318681359291,-0.021506579592823982,0.11243085563182831,0.017238296568393707,-0.15294736623764038,0.03595968335866928,-0.13946746289730072,0.28595200181007385,-0.13188757002353668,0.07308920472860336,-0.03632892295718193,0.14293399453163147,0.0693429633975029,-0.10641983896493912,-0.03006046637892723,-0.21461275219917297,-0.18608000874519348,0.21084906160831451,-0.0039365640841424465,0.09638920426368713,0.17649157345294952,-0.0862773135304451,-0.004437347408384085,0.08359178900718689,0.13495485484600067,-0.04048832878470421,-0.051296088844537735,0.10380104184150696,0.04901683330535889,-0.18985801935195923,0.05979226902127266,0.019504807889461517,-0.06811442226171494,-0.09849119186401367,-0.12709012627601624,0.15132196247577667,-0.128000408411026,-0.1302219182252884,-0.020815879106521606,-0.00473257340490818,-0.19065548479557037,0.10404033213853836,-0.06154763698577881,-0.0021093909163028,-0.07776887714862823,0.0036438850220292807,-0.16481280326843262,-0.05239769071340561,-0.006558169610798359,0.13285814225673676,0.15727345645427704,-0.10432153195142746,0.15439826250076294,-0.10131236910820007,-0.04798174649477005,0.05381087586283684,0.03433627262711525,0.04490824043750763,0.0927758663892746,0.04075581207871437,-0.2084837257862091,-0.07875457406044006,-0.06077858433127403,-0.22152474522590637,0.07713973522186279,0.08787613362073898,-0.22645793855190277,-0.021392621099948883,-0.030626991763710976,0.11932158470153809,-0.184090718626976,0.13532207906246185,0.08857089281082153,-0.18157364428043365,-0.29589322209358215,-0.05150614306330681,-0.08682136237621307,0.2014777958393097,-0.02109692245721817,0.18709976971149445,-0.0807129517197609,-0.07728762179613113,-0.22759972512722015,0.25969475507736206,-0.13320858776569366,-0.025126095861196518,0.1359620988368988,0.0290419589728117,0.1349303424358368,-0.16548538208007812,-0.024123309180140495,0.06643789261579514,-0.1728382557630539,-0.016592541709542274,-0.13239140808582306,-0.03970392420887947,0.12184543162584305,-0.09097511321306229,0.09968764334917068,-0.04805055633187294,0.008691086433827877,0.09931785613298416,-0.2053598314523697,0.06253866851329803,-0.041968248784542084,-0.11822256445884705,0.13684377074241638,-0.04167250171303749,0.0826498419046402,-0.12718793749809265,0.10815450549125671,-0.24761825799942017,-0.035085529088974,0.07461220026016235,0.07031673192977905,-0.03586401417851448,0.03644061088562012,0.06605333089828491,0.04485522583127022,0.12516044080257416,-0.1262943595647812,0.14315351843833923,-0.1690734326839447,-0.034647949039936066,0.04929010570049286,-0.09501370042562485,0.06071074679493904,0.027615204453468323,0.005262096878141165,0.004431807901710272,0.21859154105186462,0.05243966355919838,-0.027781540527939796,0.007808394264429808,0.1256283074617386,0.024355897679924965,0.030041024088859558,0.060445237904787064,0.06581657379865646,0.14704962074756622,-0.11117473989725113,-0.08832144737243652,-0.10927651822566986,0.09037371724843979,0.08861172199249268,0.26418665051460266,-0.004283120855689049,-0.007588490378111601,0.03494611009955406,0.05950518697500229,0.06667180359363556,0.10992316156625748,0.07967523485422134,-0.05863795429468155,0.07749971002340317,-0.061043962836265564,-0.07060305774211884,-0.046749986708164215,0.05316264182329178,-0.07420673966407776,0.2441895753145218,-0.038572702556848526,0.10579925775527954,-0.035026293247938156,0.12326368689537048,0.027337564155459404,-0.04833764210343361,0.07548932731151581,0.001720357220619917,0.09723161160945892,-0.08596781641244888,-0.07368434220552444,0.0974845290184021,-0.03758279234170914,-0.020782645791769028,0.04106519743800163,0.13025888800621033,0.25658512115478516,0.005841194186359644,-0.3070657551288605,0.03766642510890961,-0.02118890918791294,-0.09533175081014633,-0.001675131032243371,-0.15922385454177856,0.24436068534851074,0.019071830436587334,0.1433093547821045,-0.046386491507291794,0.030796905979514122,-0.12106576561927795,-0.1333152800798416,-0.22989749908447266,-0.08453687280416489,0.013727179728448391,0.20145438611507416,0.18962278962135315,0.073283351957798,-0.15980656445026398,-0.056164078414440155,0.004190008156001568,0.050240468233823776,-0.029619125649333,-0.042127978056669235,0.07884732633829117,-0.10955236852169037,-0.05724567919969559,-0.01866585575044155,-0.05937712639570236,-0.03517242893576622,0.03313543647527695,0.040320657193660736,0.07421915978193283,-0.18574048578739166,0.012476533651351929,-0.07063739001750946,-0.024853983893990517,0.14686569571495056,-0.10847096890211105,0.042118221521377563,0.13284806907176971,0.012365449219942093,-0.1288948804140091,0.07438703626394272,-0.1268569529056549,-0.007015951909124851,-0.02121470496058464,-0.08821544796228409,0.1398230940103531,-0.19575782120227814,-0.19317997992038727,0.11193100363016129,-0.012336274608969688,-0.20842956006526947,-0.05781252309679985,0.021152399480342865,0.0493416003882885,0.013826102949678898,-0.18424831330776215,-0.010196574032306671,0.09460648149251938,0.10907316952943802,-0.10935152322053909,0.07182159274816513,0.1020464152097702,-0.048213712871074677,-0.07331380248069763,0.0624767541885376,-0.22181813418865204,-0.018739111721515656,0.10492309182882309,0.0661933645606041,0.01839829608798027,-0.11675997823476791,0.08409587293863297,0.10580417513847351,-0.07273083180189133,0.026908069849014282,0.10274466872215271,0.06775718927383423,-0.08803845196962357,-0.04472718760371208,0.08080615103244781,-0.05454215034842491,0.07958854734897614,0.22408655285835266,0.06758783012628555,0.01624516397714615,0.1937529593706131,-0.043458592146635056,0.03792126476764679,-0.24599719047546387,-0.03915787860751152,-0.22808420658111572,0.05950097739696503,-0.1191614493727684,0.0863754153251648,-0.09791036695241928,-0.04989942908287048,0.029083672910928726,-0.040984537452459335,0.04804843291640282,-0.01379779726266861,0.06923504173755646,0.04958360269665718,-0.1101849377155304,-0.2322997897863388,-0.06092892959713936,0.01616029627621174,-0.13597801327705383,0.16649334132671356,-0.06693759560585022,0.005643678363412619,-0.12906049191951752,0.05174950882792473,0.16370724141597748,-0.013223820365965366,0.13806656002998352,-0.0025807907804846764,-0.03635865077376366,0.0329057052731514,0.11966449022293091,0.06120426952838898,-0.019331058487296104,0.004603614564985037,0.09275540709495544,-0.08404552191495895,0.018327835947275162,0.05495494604110718,-0.006352702621370554,-0.033089231699705124,0.11525125056505203,0.16604885458946228,0.05838366225361824,0.05200640857219696,0.03206595405936241,-0.20986129343509674,0.07601676136255264,0.10843653976917267,0.11065835505723953,-0.13572630286216736,0.07438677549362183,-0.04071759805083275,0.01066395454108715,-0.22837349772453308,-0.09878016263246536,0.12197806686162949,-0.06737923622131348,0.03845183178782463,-0.05584348365664482,-0.10182102769613266,-0.021004900336265564,0.01949995569884777,-0.22106654942035675,0.13937929272651672,-0.1404181271791458,-0.11283674836158752,-0.11144537478685379,-0.23334850370883942,-0.12529119849205017,-0.07055933028459549,0.06677600741386414,-0.1576147973537445,0.023629898205399513,-0.09194137901067734,-0.08443815261125565,-0.04575229436159134,0.03858335688710213,-0.08354001492261887,-0.22987207770347595,-0.01800825446844101,-0.07986085116863251,-0.06955769658088684,-0.14508502185344696,0.11880487203598022,-0.2023802399635315,0.04759857431054115,0.15617945790290833,-0.1310293972492218,0.1800069659948349,0.005609528161585331,-0.19711630046367645,-0.01568811759352684,-0.11452051252126694,-0.0956670492887497,0.042073749005794525,0.07095535099506378,-0.02611306682229042,-0.00509866327047348,0.09825234860181808,0.013965988531708717,-0.04242921993136406,-0.004385052714496851,-0.02242535538971424,0.033788926899433136,-0.22796744108200073,0.02659081295132637,0.06139300391077995,-0.09157311916351318,-0.15482184290885925,0.20991796255111694,0.1244993656873703,0.05575478821992874,-0.11756078898906708,0.0019993926398456097,0.05837036669254303,0.14599181711673737,-0.15677107870578766,0.1594100445508957,0.1978730708360672,-0.13096259534358978,-0.05153973773121834,0.08122412860393524,-0.0029779046308249235,0.1697046458721161
O,0.13732501864433289,-0.11018719524145126,0.19297614693641663,-0.1178356483578682,0.01807769387960434,-0.13143779337406158,0.4135144352912903,-0.1415415108203888,-0.06514536589384079,-0.16832919418811798,0.07221446931362152,-0.00020230647351127118,0.01667049713432789,0.0024068618658930063,-0.07014651596546173,0.07679791003465652,0.001092335325665772,-0.009420185349881649,0.10730660706758499,-0.05149831622838974,-0.023099329322576523,0.04270873963832855,0.021947840228676796,0.08025889098644257,0.012898940593004227,0.11735398322343826,0.09826448559761047,-0.10658742487430573,-0.0840253233909607,-0.09768302738666534,-0.10490347445011139,-6.138665048638359e-05,-0.010921379551291466,0.06185811758041382,-0.0655745193362236,-0.0703737735748291,-0.005232475232332945,0.05606508255004883,-0.10979229211807251,0.05381256714463234,-0.014078174717724323,-0.11484432965517044,-0.06664206087589264,-0.11144907027482986,0.061741944402456284,-0.007700301706790924,0.020018594339489937,0.054832424968481064,0.0183881763368845,-0.0738411471247673,0.05916590988636017,0.11915354430675507,-0.1616935133934021,0.016377944499254227,0.007664144039154053,-0.050181794911623,0.2070474922657013,0.02417890541255474,0.08581890165805817,-0.09087639302015305,0.07963871210813522,-0.000911877432372421,0.006925082765519619,0.11963847279548645,0.04742841422557831,0.08833611756563187,-0.037637416273355484,-0.06331661343574524,0.13598357141017914,0.16203585267066956,-0.05890713632106781,-0.0045631821267306805,0.04224809259176254,-0.05733107775449753,-0.006843537092208862,0.02172117494046688,-0.009654277935624123,-0.04088708758354187,-0.06585714221000671,0.178077831864357,0.08113470673561096,0.03274083510041237,-0.017492705956101418,0.0013117460766807199,-0.1048889085650444,0.14088739454746246,-0.10413917899131775,0.0681893602013588,-0.005184902343899012,-0.01726711168885231,-0.06115292012691498,0.0985262468457222,0.024779096245765686,0.23437155783176422,-0.12264099717140198,-0.020046593621373177,0.1300783008337021,0.06360825151205063,0.02111721783876419,0.06034867465496063,-0.10691211372613907,0.12004668265581131,-0.025362718850374222,-0.11809523403644562,-0.16494764387607574,-0.16673849523067474,0.11005914211273193,-0.10948493331670761,0.006302877329289913,0.01205771416425705,-0.020187508314847946,0.04066600278019905,-0.026014287024736404,0.10238444060087204,-0.06532391905784607,-0.1957360953092575,-0.031125081703066826,-0.06171928346157074,0.010475246235728264,0.07022903859615326,-0.055078621953725815,0.019757462665438652,0.002929402980953455,-0.17562948167324066,0.00841667503118515,-0.07725489139556885,0.10345327854156494,-0.006209034472703934,-0.06747439503669739,0.06553094834089279,0.007433261256664991,0.0666043683886528,0.09549885243177414,-0.07007340341806412,0.1506681591272354,0.1849590688943863,0.01740548014640808,-0.1291448473930359,-0.015320898965001106,0.06077391281723976,-0.1738731861114502,-0.041745465248823166,0.004271830432116985,0.05091523379087448,0.028545577079057693,0.017339888960123062,-0.08044691383838654,0.0722695142030716,-0.07844196259975433,-0.03663219138979912,-0.05223415419459343,0.071095310151577,0.01153636910021305,-0.09472975879907608,0.06144974008202553,-0.04497690126299858,0.0948358029127121,-0.2265569269657135,0.027315862476825714,-0.051549531519412994,-0.0973416194319725,0.0024586019571870565,-0.08756682276725769,0.08774816244840622,0.009202060289680958,0.13691791892051697,0.020443182438611984,-0.01933308131992817,0.0767890140414238,0.0938696637749672,0.0793948546051979,0.12614735960960388,0.007839863188564777,-0.08875186741352081,-0.07589982450008392,0.10685528814792633,-0.11373534798622131,0.06833786517381668,-0.02987527661025524,-0.05380065366625786,-0.046836912631988525,0.01121856365352869,-0.06069411337375641,0.08640366792678833,-0.1643848419189453,0.11020085215568542,0.08459921926259995,0.013306324370205402,0.12908613681793213,0.09802385419607162,-0.18490734696388245,-0.2033306509256363,-0.14451417326927185,-0.18920330703258514,0.11105488985776901,0.016898028552532196,-0.029782529920339584,0.015284709632396698,-0.05475282669067383,0.027167709544301033,0.09066492319107056,-0.2287253886461258,-0.1582658737897873,0.09426230937242508,0.04300573095679283,0.02545958198606968,0.03803558647632599,-0.052081841975450516,0.10644886642694473,-0.0068832929246127605,-0.08714934438467026,0.0059218076057732105,-0.04595780000090599,0.09519872814416885,0.037012938410043716,-0.09869904816150665,-0.07728416472673416,0.0675101950764656,-0.014057439751923084,-0.010712684132158756,0.1616572141647339,-0.15693818032741547,-0.18621215224266052,-0.010952197946608067,0.009267332963645458,0.1268460601568222,-0.23193810880184174,0.2889857292175293,-0.00771148269996047,0.03920793905854225,-0.02092503197491169,0.1611471325159073,-0.07237593084573746,0.017063159495592117,0.031177228316664696,0.09023208916187286,-0.018741631880402565,-0.09309767931699753,0.08053365349769592,-0.10438036918640137,-0.053598061203956604,0.07182769477367401,-0.014726545661687851,0.0824388638138771,0.039189472794532776,0.012273596599698067,0.06338251382112503,0.1555286943912506,-0.0338812991976738,-0.07057490199804306,-0.14457298815250397,0.12256968766450882,-0.0027929653879255056,0.10062059015035629,0.10459081828594208,0.07786595821380615,0.08510341495275497,-0.16845840215682983,-0.009969719685614109,-0.08214125782251358,0.07682249695062637,-0.0038806793745607138,0.12687161564826965,0.022195614874362946,-0.0323665514588356,0.08053592592477798,0.08669671416282654,-0.04381826892495155,0.12075812369585037,0.0076170386746525764,0.0012862819712609053,0.0727551281452179,-0.018298020586371422,-0.08739519864320755,-0.03850753232836723,0.01685974933207035,-0.1268705129623413,-0.06604387611150742,0.050044529139995575,-0.08832570165395737,-0.126125767827034,0.06445686519145966,0.011562155559659004,0.14652439951896667,0.07182018458843231,0.011207202449440956,-0.004319971892982721,-0.09648554772138596,-0.084189273416996,-0.1598457396030426,-0.019014699384570122,-0.14456497132778168,0.11272759735584259,0.1463339477777481,-0.12915150821208954,0.010653398931026459,-0.20510981976985931,0.1401388943195343,0.13656650483608246,0.07418378442525864,0.09678129106760025,-0.07669951021671295,0.01740255393087864,-0.030602263286709785,0.05343663692474365,-0.02272103540599346,-0.1258487105369568,-0.060746219009160995,-0.12310502678155899,-0.11748936772346497,0.1505286991596222,-0.05889362841844559,0.1325155645608902,0.06880542635917664,0.06306841224431992,-0.139682337641716,-0.17227484285831451,0.07909812778234482,-0.023920658975839615,-0.09909042716026306,-0.057251784950494766,0.07690639048814774,-0.04854608327150345,-0.14490966498851776,0.15758201479911804,-0.019944747909903526,0.07985088229179382,-0.1701420396566391,0.10087667405605316,-0.012668433599174023,-0.09089326113462448,0.052957817912101746,-0.1065605878829956,-0.02805674821138382,-0.03288112208247185,-0.09062924981117249,0.1644815355539322,-0.0175818782299757,-0.08469534665346146,-0.10796765983104706,0.04193045571446419,0.00032150049810297787,0.13997143507003784,0.004905311856418848,-0.0866677537560463,-0.027697063982486725,0.007113499566912651,-0.07931477576494217,-0.04692617058753967,-0.015057130716741085,-0.06165967881679535,-0.06122391298413277,-0.023850811645388603,0.05028163269162178,-0.06857581436634064,-0.14804139733314514,0.003237348748371005,0.05453169345855713,-0.0718301385641098,0.07086159288883209,0.10959094762802124,0.07970207184553146,-0.034517377614974976,0.0650046095252037,-0.07355573028326035,-0.16330638527870178,0.00788624957203865,0.18386830389499664,-0.09322385489940643,-0.04609360918402672,-0.028706343844532967,0.0752355232834816,-0.00852714292705059,0.017122874036431313,-0.164128839969635,0.042694274336099625,-0.1904354840517044,-0.11418461799621582,0.18212996423244476,-0.015075561590492725,-0.0679880678653717,0.023209335282444954,0.10705234110355377,-0.008565914817154408,-0.015702301636338234,0.255574494600296,-0.07006929069757462,0.09346584975719452,0.06261885166168213,-0.0014746622182428837,-0.06987622380256653,0.010171624831855297,-0.01681881584227085,-0.04738607630133629,-0.14493340253829956,-0.03548162803053856,0.13816578686237335,-0.04902825132012367,-0.03950610011816025,-0.028758132830262184,0.07999294251203537,0.04477151483297348,-0.06523861736059189,-0.004327898845076561,0.15990996360778809,0.03217720240354538,-0.132553368806839,0.06802014261484146,-0.11435354501008987,-0.011747146025300026,0.03339702636003494,0.04073682427406311,0.0030970757361501455,-0.06858401745557785,-0.012114106677472591,0.042239438742399216,-0.017214437946677208,0.022517845034599304,0.2703615427017212,0.06875225156545639,0.060612164437770844,-0.08065559715032578,0.08881793916225433,-0.17947691679000854,-0.006007354706525803,-0.013240257278084755,-0.2227853685617447,0.016003694385290146,0.12047585844993591,-0.019937116652727127,-0.06883766502141953,0.0195216853171587,0.07145512104034424,-0.11010267585515976,-0.013515378348529339,0.12061179429292679,-0.04381870478391647,0.01533812191337347,-0.02286548726260662,-0.03093305230140686,0.00898466445505619,-0.0211178008466959,-0.0740017518401146,0.026869872584939003,-0.1123528704047203,0.06464558839797974,0.0035567819140851498,-0.014134774915874004,0.048250116407871246,-0.05089961364865303,0.1006249412894249,0.0812293067574501,0.004813503008335829,0.01783493533730507,-0.08396333456039429,0.08709217607975006,-0.043123867362737656,-0.029114002361893654,-0.007448290940374136,-0.12539291381835938,0.10352577269077301,0.11048010736703873,-0.010393412783741951,0.11031513661146164,-0.032989758998155594,-0.04257229343056679,-0.11933653056621552,-0.014117803424596786,0.0768980085849762,0.023221330717206,-0.14524304866790771,0.0025089243426918983,0.010533331893384457,0.003223605453968048,0.05428215488791466,-0.09857103228569031,-0.1424529105424881,0.06135343387722969,-0.18309181928634644,0.02125006541609764,-0.13906799256801605,-0.05220525339245796,-0.019733000546693802,0.11822562664747238,-0.05769767239689827,0.058826297521591187,0.05153084173798561,-0.07520297914743423,-0.051249850541353226,-0.012892473489046097,-0.06793104857206345,0.12005838751792908,-0.12209639698266983,0.10598099231719971,0.18067792057991028,-0.07763402909040451,-0.09080100804567337,0.18491563200950623,0.00947247352451086,0.12169023603200912,-0.14341270923614502,0.06142618507146835,0.13610409200191498,0.085199274122715,0.03869941085577011,-0.07873040437698364,-0.04802946746349335,-0.24618497490882874,-0.06325221061706543,0.12757442891597748,-0.04360717907547951,0.17163090407848358
F,0.12665553390979767,-0.017229480668902397,0.042230863124132156,0.08960634469985962,-0.08733326196670532,0.027372486889362335,0.10034042596817017,0.11987380683422089,-0.06872669607400894,-0.05975694581866264,-0.17604702711105347,-0.011821005493402481,-0.13695313036441803,0.008128992281854153,0.13768203556537628,-0.15048709511756897,-0.04352657124400139,-0.05501728877425194,-0.05170528218150139,-0.11906353384256363,0.10066539794206619,0.020879318937659264,-0.0591975599527359,0.10059017688035965,-0.024229319766163826,-0.1205606684088707,0.08308446407318115,-0.050170838832855225,-0.03555646911263466,-0.04305742308497429,-0.10020799189805984,0.07764606177806854,-0.06825516372919083,0.062333036214113235,-0.10397631675004959,-0.1057276800274849,-0.017941314727067947,-0.010939404368400574,0.030591171234846115,0.04710913449525833,0.021292705088853836,-0.03460801765322685,0.10245224088430405,-0.08671984821557999,-0.027986755594611168,0.0832376703619957,-0.06335240602493286,-0.09243874996900558,-0.0008034194470383227,-0.14865797758102417,0.04752710834145546,-0.0594916045665741,-0.3045187294483185,0.054358892142772675,0.07996702939271927,-0.14193664491176605,0.22274865210056305,-0.18769471347332,-0.14945323765277863,-0.18893912434577942,0.011057473719120026,-0.06389996409416199,0.007845853455364704,0.19409114122390747,0.07975180447101593,-0.042336951941251755,0.10583952814340591,-0.08254895359277725,0.26388683915138245,0.08191213011741638,0.15208657085895538,0.08705583214759827,-0.04979480803012848,0.030231421813368797,0.06499207019805908,0.24781657755374908,-0.12278759479522705,-0.08406966924667358,0.06947705894708633,0.10222803801298141,0.031080426648259163,0.05439664050936699,-0.017388826236128807,-0.02338295616209507,-0.12946021556854248,0.022066425532102585,-0.22333361208438873,0.09347531199455261,0.09714443236589432,0.006967451423406601,0.16725386679172516,0.05299776419997215,-0.05309024080634117,0.012671835720539093,-0.011321865022182465,0.024009816348552704,0.2135612964630127,0.10911671072244644,-0.07839120179414749,-0.24571363627910614,-0.13399627804756165,-0.02198844589293003,0.05729661136865616,0.01158982701599598,0.04940387234091759,-0.0933871939778328,0.07963502407073975,-0.16043123602867126,0.024929553270339966,-0.07927831262350082,-0.08951517939567566,0.08165054023265839,-0.11364307999610901,-0.047983720898628235,-0.14571282267570496,0.024437563493847847,-0.12300717830657959,0.15375405550003052,-0.19955478608608246,0.10703625530004501,-0.021409334614872932,-0.17689307034015656,-0.0802568718791008,-0.21272428333759308,-0.07366436719894409,-0.07949258387088776,0.059329040348529816,-0.06889813393354416,-0.06015166640281677,0.07804502546787262,-0.15669935941696167,-0.22433772683143616,0.06219964474439621,-0.17016057670116425,0.24810688197612762,0.1469520479440689,0.07830200344324112,-0.21464261412620544,-0.30164211988449097,0.0620575025677681,-0.003560724901035428,0.2063821256160736,-0.11828997731208801,-0.06657803058624268,-0.05470532551407814,-0.08025147765874863,-0.1286812573671341,0.11972659826278687,-0.009521533735096455,0.09546345472335815,0.08528104424476624,-0.12207180261611938,-0.05692158639431,-0.11966484785079956,0.07243707031011581,0.09450391680002213,-0.02095874398946762,-0.24294894933700562,-0.09297923743724823,-0.15767571330070496,-0.20628389716148376,-0.013993053697049618,0.0014345962554216385,0.06077482923865318,-0.006700119934976101,-0.08140267431735992,0.15655671060085297,0.05549951642751694,0.1460772603750229,0.0639936625957489,0.14194196462631226,0.14106939733028412,0.11271526664495468,-0.1032831072807312,-0.20017695426940918,-0.0010169600136578083,0.025434037670493126,-0.01240224577486515,0.20097745954990387,-0.08126454800367355,-0.1396029144525528,0.1025487408041954,-0.11021032929420471,0.04316151887178421,-0.0902995839715004,0.03130051866173744,0.041466858237981796,-0.06919415295124054,-0.08073114603757858,-0.023300018161535263,-0.1564069241285324,-0.1850549876689911,-0.15770885348320007,-0.24038466811180115,0.09415183216333389,-0.09131395816802979,-0.0498947873711586,0.07770149409770966,0.058042820543050766,0.04630562663078308,-0.036606110632419586,-0.28536519408226013,0.0784769132733345,0.10154484212398529,-0.1345757097005844,0.1067945808172226,0.09918534755706787,-0.017802653834223747,0.03281748667359352,-0.20415490865707397,0.05376656353473663,-0.10453271120786667,-0.0346502885222435,-0.13130171597003937,0.05746243894100189,-0.07037156820297241,-0.08411946147680283,0.07167015969753265,0.013656007125973701,-0.001446971669793129,0.062830351293087,-0.04492884501814842,-0.07751479744911194,-0.12718601524829865,-0.038663599640131,0.09086275845766068,0.14999514818191528,0.23995079100131989,-0.1530652493238449,0.05186811834573746,0.09400048106908798,0.1478550136089325,-0.08452612161636353,-0.1306699812412262,0.11732110381126404,0.022730965167284012,0.09527714550495148,0.16092529892921448,0.07764182984828949,-0.005863734055310488,-0.0859772264957428,0.06239181011915207,-0.07798586040735245,0.12830570340156555,0.06627387553453445,-0.021767856553196907,0.11573418974876404,0.11565444618463516,-0.07193154096603394,-0.14283183217048645,-0.16498088836669922,0.04349137470126152,0.06242343410849571,0.2197684645652771,0.11637838184833527,-0.04137280583381653,0.04710157960653305,-0.16548670828342438,-0.09047335386276245,-0.10946468263864517,0.04930124431848526,0.07169358432292938,0.24715107679367065,-0.10346013307571411,-0.004081963561475277,-0.09500917047262192,0.05858384445309639,-0.11836158484220505,0.030611826106905937,0.058373257517814636,0.10719460248947144,0.11245376616716385,0.030583813786506653,0.010828748345375061,0.0663488432765007,0.07381386309862137,-0.08520346134901047,0.16203400492668152,-0.1782202571630478,0.09746844321489334,-0.048984184861183167,-0.0038666396867483854,0.030454808846116066,0.09871241450309753,0.18970279395580292,0.04973142221570015,-0.042617008090019226,-0.09532850235700607,-0.09834495186805725,0.06301527470350266,-0.15058128535747528,-0.0884840115904808,0.08710472285747528,0.12791521847248077,-0.03311977908015251,0.22580625116825104,-0.1763807237148285,0.10907778888940811,0.08214150369167328,0.022616159170866013,0.19719566404819489,-0.008279181085526943,-0.05770743638277054,0.12422110885381699,0.21415534615516663,-0.14615857601165771,-0.18175381422042847,-0.06041477620601654,-0.054609596729278564,-0.026097452268004417,0.19746199250221252,-0.047385863959789276,0.1056552454829216,-0.04936909303069115,0.15725676715373993,0.05558091774582863,0.1025257334113121,0.10296498984098434,0.02232063189148903,-0.12153779715299606,0.017944714054465294,-0.10019292682409286,0.006036221981048584,0.15588706731796265,0.04918409138917923,-0.044986236840486526,0.05347078666090965,-0.014448202215135098,0.2396746724843979,-0.2223583459854126,-0.002276517916470766,-0.03553012013435364,-0.129158154129982,-0.049873583018779755,0.14535479247570038,0.0006840162095613778,0.004883686080574989,0.07113279402256012,-0.062001071870326996,-0.12238334864377975,0.008237667381763458,-0.17168329656124115,0.03717036917805672,0.19618704915046692,0.05646533519029617,-0.050089433789253235,-0.1377665251493454,-0.09847734868526459,-0.07494843751192093,0.091062992811203,0.11621329933404922,0.011119145900011063,-0.04661194980144501,0.015619996003806591,0.12159229815006256,-0.2538008391857147,-0.02985948882997036,0.1314312219619751,0.06427184492349625,-0.017285073176026344,0.0968284085392952,0.07960430532693863,-0.07824187725782394,0.039536308497190475,-0.05627311021089554,0.05879520624876022,-0.05425829440355301,0.25756213068962097,-0.07601770013570786,-0.10477542877197266,0.06307363510131836,0.11351945251226425,-0.009200692176818848,0.09034445881843567,0.08404529094696045,-0.145255908370018,-0.02716602198779583,-0.09919929504394531,0.1317254602909088,0.20028431713581085,-0.024002043530344963,0.08637536317110062,0.06654151529073715,0.09630230069160461,-0.0857979953289032,-0.057392045855522156,-0.11462846398353577,0.00031478836899623275,-0.010021986439824104,0.07571490108966827,-0.24104847013950348,0.1009826734662056,-0.005469638854265213,-0.1783815175294876,-0.057627759873867035,-0.13368302583694458,0.19118288159370422,-0.041505418717861176,-0.05685710534453392,0.11791267991065979,0.03114314004778862,-0.010518990457057953,0.08779935538768768,-0.02700110338628292,0.017280887812376022,0.016731707379221916,-0.015724018216133118,0.20329131186008453,0.16609525680541992,0.026533331722021103,0.10690785944461823,0.13859447836875916,-0.0005410226294770837,-0.0697338879108429,-0.05648297443985939,-0.13813377916812897,-0.047040536999702454,0.02625967375934124,0.177531436085701,0.011030713096261024,0.15897956490516663,0.056850917637348175,-0.05010700225830078,-0.019150296226143837,-0.02554377354681492,-0.03169885277748108,-0.26844778656959534,0.060685791075229645,-0.0016061201458796859,0.22102391719818115,0.026826387271285057,0.010314710438251495,-0.2893810272216797,0.002756070578470826,-0.012907356955111027,0.10836028307676315,0.13731500506401062,-0.08783036470413208,0.021955573931336403,-0.08733721077442169,-0.01759834587574005,0.02416548877954483,-0.05375293269753456,0.09384854882955551,-0.13427375257015228,-0.09147613495588303,-0.08019479364156723,0.13086669147014618,0.004450120497494936,-0.10362425446510315,0.043222617357969284,-0.02772168442606926,-0.11700393259525299,0.04940405860543251,-0.1480262279510498,-0.04667958617210388,-0.1234298050403595,0.06799239665269852,-0.047729507088661194,-0.011147362180054188,0.20932281017303467,-0.09594817459583282,-0.0783049613237381,0.09885384887456894,0.13555116951465607,-0.022397488355636597,0.013127399608492851,-0.0024197224993258715,-0.15363985300064087,-0.004869831260293722,-0.025992363691329956,-0.01846548542380333,-0.09795550256967545,-0.050076231360435486,0.11873190850019455,-0.007557475008070469,0.007795888464897871,0.0005971625214442611,-0.10601173341274261,0.07124556601047516,-0.09228856861591339,-0.14510849118232727,-0.05265563726425171,0.12580634653568268,-0.03342233598232269,-0.14929349720478058,0.04190832003951073,-0.08046306669712067,0.08079297840595245,-0.1753191202878952,-0.12173886597156525,-0.009287778288125992,0.03648766875267029,0.07266640663146973,0.23363560438156128,-0.08366131037473679,-0.04598887637257576,-0.045056864619255066,0.13465258479118347,-0.05929023027420044,-0.11923731863498688,-0.014403384178876877,0.15866190195083618,0.036616578698158264,0.14514096081256866,0.15017342567443848,0.09552706778049469,-0.3593478798866272,-0.05209789052605629,-0.041594285517930984,0.04350213706493378,0.05189322307705879
